{"learner":{"attributes":{"scikit_learn":"{\"_estimator_type\": \"regressor\"}"},"feature_names":["load_1_hour_MW","load_2_hour_MW","load_3_hour_MW","load_4_hour_MW"],"feature_types":["float","float","float","float"],"gradient_booster":{"model":{"gbtree_model_param":{"num_parallel_tree":"1","num_trees":"100"},"iteration_indptr":[0,1,2,3,4,5,6,7,8,9,10,11,12,13,14,15,16,17,18,19,20,21,22,23,24,25,26,27,28,29,30,31,32,33,34,35,36,37,38,39,40,41,42,43,44,45,46,47,48,49,50,51,52,53,54,55,56,57,58,59,60,61,62,63,64,65,66,67,68,69,70,71,72,73,74,75,76,77,78,79,80,81,82,83,84,85,86,87,88,89,90,91,92,93,94,95,96,97,98,99,100],"tree_info":[0,0,0,0,0,0,0,0,0,0,0,0,0,0,0,0,0,0,0,0,0,0,0,0,0,0,0,0,0,0,0,0,0,0,0,0,0,0,0,0,0,0,0,0,0,0,0,0,0,0,0,0,0,0,0,0,0,0,0,0,0,0,0,0,0,0,0,0,0,0,0,0,0,0,0,0,0,0,0,0,0,0,0,0,0,0,0,0,0,0,0,0,0,0,0,0,0,0,0,0],"trees":[{"base_weights":[1.0655947E-4,-3.874448E2,6.677606E2,-6.773517E2,-1.3146466E2,4.717677E2,1.489071E3,-8.4709515E2,-5.3897235E2,-2.4084164E2,1.3052571E1,2.8191473E2,6.819644E2,1.2248418E3,2.1633418E3,-9.3515436E2,-7.583333E2,-4.6558838E2,-6.4419684E2,-1.8336781E2,-3.6721844E2,7.253017E1,-1.1059952E2,2.0248904E2,3.774917E2,5.69286E2,8.065655E2,1.085831E3,1.4408717E3,1.9479292E2,2.4393042E2,-1.0157695E2,-8.990069E2,-6.516204E2,-8.2529976E1,-5.437323E2,-3.7679672E2,-7.1471515E2,-5.62278E2,-2.5974503E2,-1.050439E2,-4.6606726E2,-2.876212E2,-5.4252133E0,1.3288354E2,-1.9069344E2,-4.65311E1,2.9011188E2,1.0560477E2,4.6599554E2,2.534261E2,6.329682E2,4.1863516E2,8.785265E2,6.5806775E2,1.13262405E2,8.3672806E1,1.5125869E3,1.1611981E2,-8.320391E1,-9.406753E1,-6.93868E1,-5.7517475E1,-4.434701E1,-5.8656414E1,-3.016417E1,-4.194807E1,-7.556969E1,-6.699401E1,-4.6237774E1,-6.0201527E1,-1.8726305E1,-3.1656378E1,-4.6037884E0,-1.5007651E1,-5.135343E1,-4.272958E1,-2.0469816E1,-3.3041275E1,5.3306065E0,-1.0612905E1,1.9652105E1,8.354966E0,-1.2959628E1,-2.2143652E1,5.2590027E0,-8.638057E0,2.490904E1,3.6099926E1,5.2667804E0,1.5854327E1,4.1844387E1,5.4742794E1,2.0396652E1,3.1367832E1,5.6723633E1,6.961791E1,3.3824825E1,4.8218044E1,8.260553E1,9.7395874E1,5.733158E1,7.4032715E1,1.3927188E2,1.6933412E2],"categories":[],"categories_nodes":[],"categories_segments":[],"categories_sizes":[],"default_left":[0,0,0,0,0,0,0,0,0,0,0,0,0,0,0,0,0,0,0,0,0,0,0,0,0,0,0,0,0,0,0,0,0,0,0,0,0,0,0,0,0,0,0,0,0,0,0,0,0,0,0,0,0,0,0,0,0,0,0,0,0,0,0,0,0,0,0,0,0,0,0,0,0,0,0,0,0,0,0,0,0,0,0,0,0,0,0,0,0,0,0,0,0,0,0,0,0,0,0,0,0,0,0,0,0],"id":0,"left_children":[1,3,5,7,9,11,13,15,17,19,21,23,25,27,29,31,33,35,37,39,41,43,45,47,49,51,53,55,57,-1,-1,-1,59,61,-1,63,65,67,69,71,73,75,77,79,81,83,85,87,89,91,93,95,97,99,101,-1,-1,103,-1,-1,-1,-1,-1,-1,-1,-1,-1,-1,-1,-1,-1,-1,-1,-1,-1,-1,-1,-1,-1,-1,-1,-1,-1,-1,-1,-1,-1,-1,-1,-1,-1,-1,-1,-1,-1,-1,-1,-1,-1,-1,-1,-1,-1,-1,-1],"loss_changes":[2.2400013E9,4.065097E8,5.110244E8,5.988672E7,4.601691E7,1.0228755E8,1.0638528E8,8.295232E6,1.0649568E7,1.1968048E7,9.237955E6,1.0179368E7,1.6641344E7,1.1708928E7,5.413632E6,7.59488E5,3.599872E6,5.61656E6,2.948656E6,6.798364E6,3.933752E6,3.990451E6,2.084775E6,6.251422E6,6.60184E6,5.903808E6,5.577056E6,2.234432E6,1.653248E6,0E0,0E0,0E0,3.47456E5,3.37256E5,0E0,1.6466E6,1.143804E6,5.888E4,8.05392E5,2.317E6,1.494406E6,2.02016E5,9.57852E5,2.1999238E6,1.484255E6,3.11278E5,9.0512556E5,1.038348E6,9.8089775E5,1.149448E6,7.01893E5,1.474848E6,8.27892E5,1.123296E6,9.1412E5,0E0,0E0,5.01632E5,0E0,0E0,0E0,0E0,0E0,0E0,0E0,0E0,0E0,0E0,0E0,0E0,0E0,0E0,0E0,0E0,0E0,0E0,0E0,0E0,0E0,0E0,0E0,0E0,0E0,0E0,0E0,0E0,0E0,0E0,0E0,0E0,0E0,0E0,0E0,0E0,0E0,0E0,0E0,0E0,0E0,0E0,0E0,0E0,0E0,0E0,0E0],"parents":[2147483647,0,0,1,1,2,2,3,3,4,4,5,5,6,6,7,7,8,8,9,9,10,10,11,11,12,12,13,13,14,14,15,15,16,16,17,17,18,18,19,19,20,20,21,21,22,22,23,23,24,24,25,25,26,26,27,27,28,28,32,32,33,33,35,35,36,36,37,37,38,38,39,39,40,40,41,41,42,42,43,43,44,44,45,45,46,46,47,47,48,48,49,49,50,50,51,51,52,52,53,53,54,54,57,57],"right_children":[2,4,6,8,10,12,14,16,18,20,22,24,26,28,30,32,34,36,38,40,42,44,46,48,50,52,54,56,58,-1,-1,-1,60,62,-1,64,66,68,70,72,74,76,78,80,82,84,86,88,90,92,94,96,98,100,102,-1,-1,104,-1,-1,-1,-1,-1,-1,-1,-1,-1,-1,-1,-1,-1,-1,-1,-1,-1,-1,-1,-1,-1,-1,-1,-1,-1,-1,-1,-1,-1,-1,-1,-1,-1,-1,-1,-1,-1,-1,-1,-1,-1,-1,-1,-1,-1,-1,-1],"split_conditions":[3.368269E3,2.8338523E3,4.232965E3,2.512721E3,3.1316333E3,3.7050479E3,4.9756113E3,2.3661174E3,2.8947566E3,3.1376514E3,3.3547883E3,3.5300383E3,3.9301287E3,4.5189497E3,5.475122E3,2.2404573E3,2.451576E3,2.6781013E3,2.7033777E3,2.9828633E3,2.9977883E3,3.2288875E3,3.2546453E3,3.4359136E3,3.6311443E3,3.9428872E3,4.1046567E3,4.51245E3,4.8718574E3,1.9479292E2,2.4393042E2,-1.0157695E2,2.4457986E3,2.451576E3,-8.2529976E1,2.4953887E3,2.6311592E3,2.6164749E3,2.987437E3,2.8389077E3,2.9640864E3,2.9039043E3,3.1780938E3,3.1581133E3,3.1951855E3,3.3410667E3,3.4089521E3,3.452524E3,3.459505E3,3.6188672E3,3.6395696E3,3.8097646E3,3.8213196E3,4.105379E3,4.0663809E3,1.13262405E2,8.3672806E1,4.7300684E3,1.1611981E2,-8.320391E1,-9.406753E1,-6.93868E1,-5.7517475E1,-4.434701E1,-5.8656414E1,-3.016417E1,-4.194807E1,-7.556969E1,-6.699401E1,-4.6237774E1,-6.0201527E1,-1.8726305E1,-3.1656378E1,-4.6037884E0,-1.5007651E1,-5.135343E1,-4.272958E1,-2.0469816E1,-3.3041275E1,5.3306065E0,-1.0612905E1,1.9652105E1,8.354966E0,-1.2959628E1,-2.2143652E1,5.2590027E0,-8.638057E0,2.490904E1,3.6099926E1,5.2667804E0,1.5854327E1,4.1844387E1,5.4742794E1,2.0396652E1,3.1367832E1,5.6723633E1,6.961791E1,3.3824825E1,4.8218044E1,8.260553E1,9.7395874E1,5.733158E1,7.4032715E1,1.3927188E2,1.6933412E2],"split_indices":[3,3,3,3,3,3,3,3,0,1,1,3,3,3,3,3,1,3,3,3,3,3,3,2,2,1,1,0,0,0,0,0,0,3,0,2,2,3,1,2,2,3,2,2,2,2,2,3,3,3,3,3,3,3,3,0,0,3,0,0,0,0,0,0,0,0,0,0,0,0,0,0,0,0,0,0,0,0,0,0,0,0,0,0,0,0,0,0,0,0,0,0,0,0,0,0,0,0,0,0,0,0,0,0,0],"split_type":[0,0,0,0,0,0,0,0,0,0,0,0,0,0,0,0,0,0,0,0,0,0,0,0,0,0,0,0,0,0,0,0,0,0,0,0,0,0,0,0,0,0,0,0,0,0,0,0,0,0,0,0,0,0,0,0,0,0,0,0,0,0,0,0,0,0,0,0,0,0,0,0,0,0,0,0,0,0,0,0,0,0,0,0,0,0,0,0,0,0,0,0,0,0,0,0,0,0,0,0,0,0,0,0,0],"sum_hessian":[8.656E3,5.478E3,3.178E3,2.568E3,2.91E3,2.567E3,6.11E2,1.151E3,1.417E3,1.656E3,1.254E3,1.35E3,1.217E3,4.41E2,1.7E2,5.73E2,5.78E2,8.38E2,5.79E2,1.14E3,5.16E2,8.47E2,4.07E2,7.39E2,6.11E2,6.42E2,5.75E2,2.72E2,1.69E2,1E2,7E1,1.69E2,4.04E2,2.27E2,3.51E2,4.43E2,3.95E2,3.07E2,2.72E2,5.76E2,5.64E2,2.28E2,2.88E2,3.7E2,4.77E2,1.8E2,2.27E2,3.87E2,3.52E2,3.55E2,2.56E2,4.49E2,1.93E2,3.84E2,1.91E2,2.26E2,4.6E1,1.31E2,3.8E1,1.63E2,2.41E2,1.41E2,8.6E1,1.36E2,3.07E2,1.46E2,2.49E2,1.52E2,1.55E2,8.1E1,1.91E2,2.55E2,3.21E2,2.45E2,3.19E2,9.7E1,1.31E2,1E2,1.88E2,2.34E2,1.36E2,2.07E2,2.7E2,6.2E1,1.18E2,6.5E1,1.62E2,2.48E2,1.39E2,1.77E2,1.75E2,2.28E2,1.27E2,1.43E2,1.13E2,2.25E2,2.24E2,8.8E1,1.05E2,2.54E2,1.3E2,9.8E1,9.3E1,8.4E1,4.7E1],"tree_param":{"num_deleted":"0","num_feature":"4","num_nodes":"105","size_leaf_vector":"1"}},{"base_weights":[7.6885864E-2,-3.5213013E2,5.960689E2,-6.4531537E2,-1.4822426E2,4.2062073E2,1.3418966E3,-7.895738E2,-5.385829E2,-2.7519467E2,-2.3822418E1,2.4578572E2,6.0907336E2,1.103764E3,1.9495732E3,-8.667645E2,-7.302952E2,-4.4842227E2,-6.0817065E2,-2.2111035E2,-3.9427982E2,3.062413E1,-1.2257756E2,1.7961012E2,3.3447314E2,5.0845718E2,7.264495E2,9.9660583E2,1.3350533E3,1.6680014E2,2.1192711E2,-9.414511E1,-8.3894554E1,-6.583494E2,-7.992916E1,-5.445207E2,-3.8110565E2,-7.041975E1,-5.5929755E2,-2.9564755E2,-1.5318861E2,-4.8638083E2,-3.2804272E2,-4.4402294E1,1.0196097E2,-2.0801147E2,-3.308787E1,2.4443283E2,7.286783E1,4.135402E2,2.184757E2,5.724241E2,3.8463785E2,7.911414E2,5.929452E2,1.0651006E3,8.426311E1,1.4344316E2,1.1450228E2,-6.961544E1,-6.0263905E1,-4.074159E1,-5.793866E1,-4.251621E1,-3.52857E1,-4.9907555E1,-6.1600777E1,-2.4478964E1,-3.7539757E1,-9.725928E0,-1.9325361E1,-5.2035492E1,-4.4838337E1,-2.5261168E1,-3.627529E1,3.234521E-1,-1.1610689E1,5.846307E0,1.571915E1,-2.5218618E1,-1.6243128E1,6.1085763E0,-8.252834E0,2.0892254E1,3.2187286E1,-1.8019352E0,1.0505283E1,4.9937717E1,3.6957012E1,1.8371145E1,2.6995499E1,5.165472E1,6.3417366E1,3.0907785E1,4.503133E1,7.437738E1,8.773062E1,5.1656338E1,6.6708206E1,9.840134E1,1.16449196E2],"categories":[],"categories_nodes":[],"categories_segments":[],"categories_sizes":[],"default_left":[0,0,0,0,0,0,0,0,0,0,0,0,0,0,0,0,0,0,0,0,0,0,0,0,0,0,0,0,0,0,0,0,0,0,0,0,0,0,0,0,0,0,0,0,0,0,0,0,0,0,0,0,0,0,0,0,0,0,0,0,0,0,0,0,0,0,0,0,0,0,0,0,0,0,0,0,0,0,0,0,0,0,0,0,0,0,0,0,0,0,0,0,0,0,0,0,0,0,0,0,0],"id":1,"left_children":[1,3,5,7,9,11,13,15,17,19,21,23,25,27,29,31,33,35,37,39,41,43,45,47,49,51,53,55,57,-1,-1,-1,-1,59,-1,61,63,-1,65,67,69,71,73,75,77,79,81,83,85,87,89,91,93,95,97,99,-1,-1,-1,-1,-1,-1,-1,-1,-1,-1,-1,-1,-1,-1,-1,-1,-1,-1,-1,-1,-1,-1,-1,-1,-1,-1,-1,-1,-1,-1,-1,-1,-1,-1,-1,-1,-1,-1,-1,-1,-1,-1,-1,-1,-1],"loss_changes":[1.817423E9,3.2523904E8,4.2026253E8,3.394099E7,5.071232E7,8.568016E7,8.640922E7,3.700224E6,7.795744E6,1.0147E7,8.730425E6,7.880608E6,1.4428512E7,9.624256E6,4.635776E6,5.3728E4,2.164288E6,3.441008E6,2.999264E6,5.498364E6,2.860192E6,5.608226E6,4.404544E6,5.358506E6,5.201656E6,5.149808E6,4.5056E6,2.32976E6,9.44768E5,0E0,0E0,0E0,0E0,1.51224E5,0E0,8.63408E5,2.66896E5,0E0,1.34552E6,2.02124E6,1.269669E6,3.132E4,6.70268E5,1.7458384E6,1.280906E6,5.53017E5,1.3226862E6,1.260964E6,8.648281E5,1.106236E6,3.72762E5,1.207824E6,1.022028E6,9.18816E5,7.4264E5,5.30464E5,0E0,0E0,0E0,0E0,0E0,0E0,0E0,0E0,0E0,0E0,0E0,0E0,0E0,0E0,0E0,0E0,0E0,0E0,0E0,0E0,0E0,0E0,0E0,0E0,0E0,0E0,0E0,0E0,0E0,0E0,0E0,0E0,0E0,0E0,0E0,0E0,0E0,0E0,0E0,0E0,0E0,0E0,0E0,0E0,0E0],"parents":[2147483647,0,0,1,1,2,2,3,3,4,4,5,5,6,6,7,7,8,8,9,9,10,10,11,11,12,12,13,13,14,14,15,15,16,16,17,17,18,18,19,19,20,20,21,21,22,22,23,23,24,24,25,25,26,26,27,27,28,28,33,33,35,35,36,36,38,38,39,39,40,40,41,41,42,42,43,43,44,44,45,45,46,46,47,47,48,48,49,49,50,50,51,51,52,52,53,53,54,54,55,55],"right_children":[2,4,6,8,10,12,14,16,18,20,22,24,26,28,30,32,34,36,38,40,42,44,46,48,50,52,54,56,58,-1,-1,-1,-1,60,-1,62,64,-1,66,68,70,72,74,76,78,80,82,84,86,88,90,92,94,96,98,100,-1,-1,-1,-1,-1,-1,-1,-1,-1,-1,-1,-1,-1,-1,-1,-1,-1,-1,-1,-1,-1,-1,-1,-1,-1,-1,-1,-1,-1,-1,-1,-1,-1,-1,-1,-1,-1,-1,-1,-1,-1,-1,-1,-1,-1],"split_conditions":[3.3600842E3,2.7613933E3,4.232965E3,2.4580757E3,3.0586926E3,3.6961409E3,4.9756113E3,2.318694E3,2.6470474E3,3.0878206E3,3.2972542E3,3.5300383E3,3.9301287E3,4.5651694E3,5.33213E3,2.2118108E3,2.6001052E3,2.5553298E3,2.586143E3,2.9039043E3,2.9176257E3,3.1906116E3,3.2428496E3,3.483578E3,3.6311443E3,3.886557E3,4.1046567E3,4.368976E3,4.6450913E3,1.6680014E2,2.1192711E2,-9.414511E1,-8.3894554E1,2.4039119E3,-7.992916E1,2.3759873E3,2.6311592E3,-7.041975E1,2.911367E3,2.82639E3,2.8947566E3,2.8442036E3,3.1015422E3,3.0810803E3,3.2782366E3,3.158354E3,3.3812683E3,3.459505E3,3.4308584E3,3.452524E3,3.6395696E3,3.8097646E3,3.8213196E3,4.105379E3,4.0663809E3,4.368976E3,8.426311E1,1.4344316E2,1.1450228E2,-6.961544E1,-6.0263905E1,-4.074159E1,-5.793866E1,-4.251621E1,-3.52857E1,-4.9907555E1,-6.1600777E1,-2.4478964E1,-3.7539757E1,-9.725928E0,-1.9325361E1,-5.2035492E1,-4.4838337E1,-2.5261168E1,-3.627529E1,3.234521E-1,-1.1610689E1,5.846307E0,1.571915E1,-2.5218618E1,-1.6243128E1,6.1085763E0,-8.252834E0,2.0892254E1,3.2187286E1,-1.8019352E0,1.0505283E1,4.9937717E1,3.6957012E1,1.8371145E1,2.6995499E1,5.165472E1,6.3417366E1,3.0907785E1,4.503133E1,7.437738E1,8.773062E1,5.1656338E1,6.6708206E1,9.840134E1,1.16449196E2],"split_indices":[3,3,3,3,3,3,3,3,1,1,1,3,3,3,3,3,0,3,3,3,3,3,3,2,2,1,1,1,1,0,0,0,0,3,0,2,3,0,1,2,2,3,2,2,3,3,2,3,3,2,3,3,3,3,3,3,0,0,0,0,0,0,0,0,0,0,0,0,0,0,0,0,0,0,0,0,0,0,0,0,0,0,0,0,0,0,0,0,0,0,0,0,0,0,0,0,0,0,0,0,0],"split_type":[0,0,0,0,0,0,0,0,0,0,0,0,0,0,0,0,0,0,0,0,0,0,0,0,0,0,0,0,0,0,0,0,0,0,0,0,0,0,0,0,0,0,0,0,0,0,0,0,0,0,0,0,0,0,0,0,0,0,0,0,0,0,0,0,0,0,0,0,0,0,0,0,0,0,0,0,0,0,0,0,0,0,0,0,0,0,0,0,0,0,0,0,0,0,0,0,0,0,0,0,0],"sum_hessian":[8.656E3,5.441E3,3.215E3,2.231E3,3.21E3,2.604E3,6.11E2,9.46E2,1.285E3,1.588E3,1.622E3,1.352E3,1.252E3,4.41E2,1.7E2,4.05E2,5.41E2,5.63E2,7.22E2,1.094E3,4.94E2,1.046E3,5.76E2,7.76E2,5.76E2,6.77E2,5.75E2,3.05E2,1.36E2,6.8E1,1.02E2,1.01E2,3.04E2,2.7E2,2.71E2,2.29E2,3.34E2,2.39E2,4.83E2,5.2E2,5.74E2,2.04E2,2.9E2,5.1E2,5.36E2,2.94E2,2.82E2,4.82E2,2.94E2,3.41E2,2.35E2,4.44E2,2.33E2,3.84E2,1.91E2,2.07E2,9.8E1,8.5E1,5.1E1,1.54E2,1.16E2,4.9E1,1.8E2,1.25E2,2.09E2,2.39E2,2.44E2,3.2E2,2E2,2.41E2,3.33E2,1.01E2,1.03E2,9.4E1,1.96E2,3.07E2,2.03E2,3.01E2,2.35E2,1.47E2,1.47E2,9.7E1,1.85E2,3.33E2,1.49E2,7.7E1,2.17E2,1.12E2,2.29E2,1.43E2,9.2E1,2.38E2,2.06E2,1.11E2,1.22E2,2.54E2,1.3E2,9.8E1,9.3E1,1.2E2,8.7E1],"tree_param":{"num_deleted":"0","num_feature":"4","num_nodes":"101","size_leaf_vector":"1"}},{"base_weights":[1.3529092E-1,-3.1423E2,5.419432E2,-5.6182495E2,-1.16278496E2,3.993128E2,1.2893376E3,-7.071411E2,-4.6322733E2,-2.2189677E2,-5.9778223E0,2.5866592E2,6.161985E2,1.0497192E3,1.7568308E3,-7.592246E2,-6.3231696E2,-4.0083282E2,-5.505151E2,-1.7535934E2,-3.320554E2,4.159331E1,-1.1070315E2,1.7091393E2,3.4556113E2,5.400617E2,7.3372894E2,9.5925714E2,1.2449052E3,1.5756187E3,1.9898672E2,-8.1134155E1,-7.2016516E2,-5.660402E2,-6.974321E1,-4.7360114E2,-3.3369208E2,-6.199303E2,-4.876022E2,-2.3106717E2,-1.1298076E2,-3.9588885E2,-2.5845517E2,-1.6688414E1,1.0844492E2,-1.7964592E2,-3.794865E1,2.4146954E2,9.52426E1,4.0659897E2,2.3083965E2,6.129714E2,4.420397E2,8.1957465E2,6.4724774E2,1.0042088E2,7.209696E1,1.3310747E2,9.8798454E1,1.644925E2,1.1899322E2,-6.6737785E1,-7.711472E1,-4.344264E1,-5.8750164E1,-3.9428825E1,-5.1079647E1,-2.8084974E1,-3.848088E1,-6.621996E1,-5.8127388E1,-4.165652E1,-5.1518337E1,-1.7560274E1,-2.9070326E1,-5.7897563E0,-1.6317535E1,-4.34302E1,-3.5360104E1,-1.9827559E1,-3.0283411E1,1.2437747E0,-1.2793681E1,1.5138309E1,4.9027524E0,-2.3700575E1,-1.4464812E1,4.3768997E0,-7.080396E0,2.0727308E1,3.1399164E1,4.359025E0,1.5105903E1,3.4170834E1,4.6331665E1,1.8289312E1,2.991161E1,5.5564095E1,7.0765564E1,3.4998634E1,4.859258E1,7.510757E1,8.7689995E1,5.810522E1,7.283169E1],"categories":[],"categories_nodes":[],"categories_segments":[],"categories_sizes":[],"default_left":[0,0,0,0,0,0,0,0,0,0,0,0,0,0,0,0,0,0,0,0,0,0,0,0,0,0,0,0,0,0,0,0,0,0,0,0,0,0,0,0,0,0,0,0,0,0,0,0,0,0,0,0,0,0,0,0,0,0,0,0,0,0,0,0,0,0,0,0,0,0,0,0,0,0,0,0,0,0,0,0,0,0,0,0,0,0,0,0,0,0,0,0,0,0,0,0,0,0,0,0,0,0,0,0,0],"id":2,"left_children":[1,3,5,7,9,11,13,15,17,19,21,23,25,27,29,31,33,35,37,39,41,43,45,47,49,51,53,55,57,59,-1,-1,61,63,-1,65,67,69,71,73,75,77,79,81,83,85,87,89,91,93,95,97,99,101,103,-1,-1,-1,-1,-1,-1,-1,-1,-1,-1,-1,-1,-1,-1,-1,-1,-1,-1,-1,-1,-1,-1,-1,-1,-1,-1,-1,-1,-1,-1,-1,-1,-1,-1,-1,-1,-1,-1,-1,-1,-1,-1,-1,-1,-1,-1,-1,-1,-1,-1],"loss_changes":[1.474679E9,2.6847027E8,3.3837018E8,3.454637E7,3.548386E7,8.13176E7,5.5174016E7,3.34688E6,7.692768E6,7.918608E6,7.4326205E6,1.2309048E7,8.999584E6,4.791488E6,4.085888E6,5.8416E5,1.37032E6,3.999696E6,2.331088E6,3.782468E6,2.063532E6,3.9993385E6,2.3305915E6,4.296284E6,5.606056E6,4.310112E6,2.513376E6,1.803904E6,9.8736E5,7.42432E5,0E0,0E0,3.92288E5,3.32296E5,0E0,9.96336E5,1.096632E6,7.7488E4,4.14328E5,1.860792E6,1.425524E6,2.44412E5,5.19498E5,1.7804822E6,1.2120875E6,4.455025E5,6.152469E5,9.71556E5,1.1235705E6,1.79232E6,8.78275E5,1.588128E6,9.48972E5,1.34576E5,6.98384E5,0E0,0E0,0E0,0E0,0E0,0E0,0E0,0E0,0E0,0E0,0E0,0E0,0E0,0E0,0E0,0E0,0E0,0E0,0E0,0E0,0E0,0E0,0E0,0E0,0E0,0E0,0E0,0E0,0E0,0E0,0E0,0E0,0E0,0E0,0E0,0E0,0E0,0E0,0E0,0E0,0E0,0E0,0E0,0E0,0E0,0E0,0E0,0E0,0E0,0E0],"parents":[2147483647,0,0,1,1,2,2,3,3,4,4,5,5,6,6,7,7,8,8,9,9,10,10,11,11,12,12,13,13,14,14,15,15,16,16,17,17,18,18,19,19,20,20,21,21,22,22,23,23,24,24,25,25,26,26,27,27,28,28,29,29,32,32,33,33,35,35,36,36,37,37,38,38,39,39,40,40,41,41,42,42,43,43,44,44,45,45,46,46,47,47,48,48,49,49,50,50,51,51,52,52,53,53,54,54],"right_children":[2,4,6,8,10,12,14,16,18,20,22,24,26,28,30,32,34,36,38,40,42,44,46,48,50,52,54,56,58,60,-1,-1,62,64,-1,66,68,70,72,74,76,78,80,82,84,86,88,90,92,94,96,98,100,102,104,-1,-1,-1,-1,-1,-1,-1,-1,-1,-1,-1,-1,-1,-1,-1,-1,-1,-1,-1,-1,-1,-1,-1,-1,-1,-1,-1,-1,-1,-1,-1,-1,-1,-1,-1,-1,-1,-1,-1,-1,-1,-1,-1,-1,-1,-1,-1,-1,-1,-1],"split_conditions":[3.368269E3,2.8030393E3,4.3148125E3,2.467464E3,3.0878206E3,3.7991726E3,4.9756113E3,2.3661174E3,2.8694802E3,3.1316333E3,3.3547883E3,3.5452043E3,4.0478447E3,4.6450913E3,5.475122E3,2.265734E3,2.502851E3,2.623456E3,2.6470474E3,2.9575867E3,2.9828633E3,3.2288875E3,3.2546453E3,3.4431355E3,3.7630632E3,3.9301287E3,4.1203037E3,4.565651E3,4.8718574E3,5.475122E3,1.9898672E2,-8.1134155E1,2.5331829E3,2.2977507E3,-6.974321E1,2.4580757E3,2.6311592E3,2.5553298E3,2.9450688E3,2.8389077E3,2.9575867E3,2.8947566E3,3.1780938E3,3.1891672E3,3.234424E3,3.158354E3,3.4089521E3,3.4688933E3,3.4765967E3,3.6395696E3,3.7050479E3,3.9188145E3,3.8985933E3,4.144136E3,4.2035957E3,1.0042088E2,7.209696E1,1.3310747E2,9.8798454E1,1.644925E2,1.1899322E2,-6.6737785E1,-7.711472E1,-4.344264E1,-5.8750164E1,-3.9428825E1,-5.1079647E1,-2.8084974E1,-3.848088E1,-6.621996E1,-5.8127388E1,-4.165652E1,-5.1518337E1,-1.7560274E1,-2.9070326E1,-5.7897563E0,-1.6317535E1,-4.34302E1,-3.5360104E1,-1.9827559E1,-3.0283411E1,1.2437747E0,-1.2793681E1,1.5138309E1,4.9027524E0,-2.3700575E1,-1.4464812E1,4.3768997E0,-7.080396E0,2.0727308E1,3.1399164E1,4.359025E0,1.5105903E1,3.4170834E1,4.6331665E1,1.8289312E1,2.991161E1,5.5564095E1,7.0765564E1,3.4998634E1,4.859258E1,7.510757E1,8.7689995E1,5.810522E1,7.283169E1],"split_indices":[3,3,3,3,3,3,3,3,0,1,1,3,3,3,3,3,1,3,3,3,3,3,3,2,1,2,2,0,0,0,0,0,0,2,0,2,2,3,1,2,2,3,2,2,2,3,2,3,3,3,3,3,3,3,3,0,0,0,0,0,0,0,0,0,0,0,0,0,0,0,0,0,0,0,0,0,0,0,0,0,0,0,0,0,0,0,0,0,0,0,0,0,0,0,0,0,0,0,0,0,0,0,0,0,0],"split_type":[0,0,0,0,0,0,0,0,0,0,0,0,0,0,0,0,0,0,0,0,0,0,0,0,0,0,0,0,0,0,0,0,0,0,0,0,0,0,0,0,0,0,0,0,0,0,0,0,0,0,0,0,0,0,0,0,0,0,0,0,0,0,0,0,0,0,0,0,0,0,0,0,0,0,0,0,0,0,0,0,0,0,0,0,0,0,0,0,0,0,0,0,0,0,0,0,0,0,0,0,0,0,0,0,0],"sum_hessian":[8.656E3,5.478E3,3.178E3,2.433E3,3.045E3,2.67E3,5.08E2,9.81E2,1.452E3,1.555E3,1.49E3,1.621E3,1.049E3,3.38E2,1.7E2,5.73E2,4.08E2,8.5E2,6.02E2,1.095E3,4.6E2,1.025E3,4.65E2,8.08E2,8.13E2,6.4E2,4.09E2,2.35E2,1.03E2,1E2,7E1,2.37E2,3.36E2,2.07E2,2.01E2,4.05E2,4.45E2,2.82E2,3.2E2,5.77E2,5.18E2,2.44E2,2.16E2,5.48E2,4.77E2,2.38E2,2.27E2,4.17E2,3.91E2,5.29E2,2.84E2,3.64E2,2.76E2,2.01E2,2.08E2,1.95E2,4E1,7.4E1,2.9E1,8.2E1,1.8E1,1.72E2,1.64E2,3.2E1,1.75E2,1.33E2,2.72E2,2.22E2,2.23E2,1.27E2,1.55E2,9.4E1,2.26E2,3.01E2,2.76E2,2.48E2,2.7E2,1.23E2,1.21E2,9.4E1,1.22E2,4.35E2,1.13E2,2.76E2,2.01E2,8.8E1,1.5E2,6.5E1,1.62E2,2.86E2,1.31E2,2.04E2,1.87E2,2.5E2,2.79E2,1.69E2,1.15E2,2.31E2,1.33E2,9.2E1,1.84E2,9.8E1,1.03E2,1.19E2,8.9E1],"tree_param":{"num_deleted":"0","num_feature":"4","num_nodes":"105","size_leaf_vector":"1"}},{"base_weights":[1.898199E-1,-2.7151498E2,5.092417E2,-4.9537646E2,-8.452385E1,3.86522E2,1.2203097E3,-6.139661E2,-3.881741E2,-1.7595699E2,2.2153996E1,2.506727E2,5.7324005E2,1.0215464E3,1.6568063E3,-6.8369415E2,-5.509617E2,-3.3562384E2,-4.7564825E2,-1.25057365E2,-2.5685016E2,7.201934E1,-5.155326E1,1.8922485E2,3.3925452E2,4.9613632E2,6.846139E2,9.1977686E2,1.2141796E3,1.5393837E2,1.9325594E2,-7.305484E1,-6.485755E2,-4.854926E2,-6.0935627E1,-3.8701398E2,-2.7131433E2,-5.3583996E1,-4.2416974E2,-1.6723157E2,-5.3398468E1,-3.365838E2,-1.983456E2,2.5254368E1,1.4355717E2,-1.3536514E2,-2.0961225E0,2.5575871E2,1.1200596E2,4.2323065E2,2.5019473E2,5.660335E2,4.1070956E2,7.269286E2,5.683597E2,9.6413475E1,7.126972E1,1.3023378E2,9.674141E1,-5.90925E1,-6.8606285E1,-5.2086636E1,-4.3069828E1,-3.402589E1,-4.557021E1,-2.4986286E1,-3.7730953E1,-3.653314E1,-4.5434196E1,-9.96712E0,-1.9339468E1,-3.7583616E0,-1.6431225E1,-2.9485071E1,-3.6676746E1,-1.3444751E1,-2.4459585E1,6.521633E0,-3.6791916E0,1.7006079E1,1.9248003E0,-4.733824E0,-1.5800328E1,6.8220124E0,-4.6747E0,1.9126938E1,3.0353674E1,4.8497324E0,1.6052336E1,3.76308E1,4.7268345E1,2.0061247E1,3.093804E1,5.1220234E1,6.536064E1,3.3131706E1,4.4891033E1,6.3832333E1,7.71786E1,4.6422516E1,6.0822735E1],"categories":[],"categories_nodes":[],"categories_segments":[],"categories_sizes":[],"default_left":[0,0,0,0,0,0,0,0,0,0,0,0,0,0,0,0,0,0,0,0,0,0,0,0,0,0,0,0,0,0,0,0,0,0,0,0,0,0,0,0,0,0,0,0,0,0,0,0,0,0,0,0,0,0,0,0,0,0,0,0,0,0,0,0,0,0,0,0,0,0,0,0,0,0,0,0,0,0,0,0,0,0,0,0,0,0,0,0,0,0,0,0,0,0,0,0,0,0,0,0,0],"id":3,"left_children":[1,3,5,7,9,11,13,15,17,19,21,23,25,27,29,31,33,35,37,39,41,43,45,47,49,51,53,55,57,-1,-1,-1,59,61,-1,63,65,-1,67,69,71,73,75,77,79,81,83,85,87,89,91,93,95,97,99,-1,-1,-1,-1,-1,-1,-1,-1,-1,-1,-1,-1,-1,-1,-1,-1,-1,-1,-1,-1,-1,-1,-1,-1,-1,-1,-1,-1,-1,-1,-1,-1,-1,-1,-1,-1,-1,-1,-1,-1,-1,-1,-1,-1,-1,-1],"loss_changes":[1.1975039E9,2.3625846E8,2.624489E8,3.2421632E7,3.0016614E7,6.507107E7,3.674189E7,4.97424E6,6.055232E6,6.790464E6,5.22651E6,8.046112E6,8.95184E6,4.901728E6,1.461056E6,4.70672E5,2.170016E6,2.697544E6,1.337488E6,3.070649E6,2.914036E6,2.8333285E6,2.379001E6,4.502782E6,4.44876E6,3.606912E6,1.751312E6,1.195904E6,9.808E5,0E0,0E0,0E0,3.22912E5,3.74592E5,0E0,1.351136E6,7.6975E5,0E0,3.25772E5,1.11375E6,6.586226E5,2.30706E5,1.063531E6,1.276858E6,1.100431E6,4.1698E5,1.1397539E6,1.399336E6,1.255537E6,5.46112E5,8.12432E5,1.319896E6,7.39892E5,7.75232E5,2.24136E5,0E0,0E0,0E0,0E0,0E0,0E0,0E0,0E0,0E0,0E0,0E0,0E0,0E0,0E0,0E0,0E0,0E0,0E0,0E0,0E0,0E0,0E0,0E0,0E0,0E0,0E0,0E0,0E0,0E0,0E0,0E0,0E0,0E0,0E0,0E0,0E0,0E0,0E0,0E0,0E0,0E0,0E0,0E0,0E0,0E0,0E0],"parents":[2147483647,0,0,1,1,2,2,3,3,4,4,5,5,6,6,7,7,8,8,9,9,10,10,11,11,12,12,13,13,14,14,15,15,16,16,17,17,18,18,19,19,20,20,21,21,22,22,23,23,24,24,25,25,26,26,27,27,28,28,32,32,33,33,35,35,36,36,38,38,39,39,40,40,41,41,42,42,43,43,44,44,45,45,46,46,47,47,48,48,49,49,50,50,51,51,52,52,53,53,54,54],"right_children":[2,4,6,8,10,12,14,16,18,20,22,24,26,28,30,32,34,36,38,40,42,44,46,48,50,52,54,56,58,-1,-1,-1,60,62,-1,64,66,-1,68,70,72,74,76,78,80,82,84,86,88,90,92,94,96,98,100,-1,-1,-1,-1,-1,-1,-1,-1,-1,-1,-1,-1,-1,-1,-1,-1,-1,-1,-1,-1,-1,-1,-1,-1,-1,-1,-1,-1,-1,-1,-1,-1,-1,-1,-1,-1,-1,-1,-1,-1,-1,-1,-1,-1,-1,-1],"split_conditions":[3.402693E3,2.8338523E3,4.368976E3,2.526683E3,3.1316333E3,3.8097646E3,5.1448433E3,2.3661174E3,2.957346E3,3.0642292E3,3.2972542E3,3.6097195E3,4.0663809E3,4.7300684E3,5.679982E3,2.265734E3,2.5197021E3,2.6954336E3,2.6874897E3,3.0148801E3,2.9871963E3,3.2782366E3,3.2546453E3,3.5045212E3,3.7153992E3,3.9301287E3,4.29098E3,4.565651E3,4.8718574E3,1.5393837E2,1.9325594E2,-7.305484E1,2.4580757E3,2.451576E3,-6.0935627E1,2.6232153E3,2.7883547E3,-5.3583996E1,3.0416008E3,2.78017E3,3.0589333E3,3.0712104E3,3.1638909E3,3.1581133E3,3.296532E3,3.2900322E3,3.4089521E3,3.4688933E3,3.5040398E3,3.6961409E3,3.7373054E3,3.9301287E3,3.9188145E3,4.144136E3,4.1783193E3,9.6413475E1,7.126972E1,1.3023378E2,9.674141E1,-5.90925E1,-6.8606285E1,-5.2086636E1,-4.3069828E1,-3.402589E1,-4.557021E1,-2.4986286E1,-3.7730953E1,-3.653314E1,-4.5434196E1,-9.96712E0,-1.9339468E1,-3.7583616E0,-1.6431225E1,-2.9485071E1,-3.6676746E1,-1.3444751E1,-2.4459585E1,6.521633E0,-3.6791916E0,1.7006079E1,1.9248003E0,-4.733824E0,-1.5800328E1,6.8220124E0,-4.6747E0,1.9126938E1,3.0353674E1,4.8497324E0,1.6052336E1,3.76308E1,4.7268345E1,2.0061247E1,3.093804E1,5.1220234E1,6.536064E1,3.3131706E1,4.4891033E1,6.3832333E1,7.71786E1,4.6422516E1,6.0822735E1],"split_indices":[3,3,3,3,3,3,3,3,0,1,1,3,3,3,3,3,1,3,3,3,3,3,3,2,2,2,1,0,0,0,0,0,0,3,0,1,2,0,1,2,2,2,2,2,2,2,2,3,3,3,3,3,3,3,3,0,0,0,0,0,0,0,0,0,0,0,0,0,0,0,0,0,0,0,0,0,0,0,0,0,0,0,0,0,0,0,0,0,0,0,0,0,0,0,0,0,0,0,0,0,0],"split_type":[0,0,0,0,0,0,0,0,0,0,0,0,0,0,0,0,0,0,0,0,0,0,0,0,0,0,0,0,0,0,0,0,0,0,0,0,0,0,0,0,0,0,0,0,0,0,0,0,0,0,0,0,0,0,0,0,0,0,0,0,0,0,0,0,0,0,0,0,0,0,0,0,0,0,0,0,0,0,0,0,0,0,0,0,0,0,0,0,0,0,0,0,0,0,0,0,0,0,0,0,0],"sum_hessian":[8.656E3,5.644E3,3.012E3,2.568E3,3.076E3,2.57E3,4.42E2,1.217E3,1.351E3,1.656E3,1.42E3,1.489E3,1.081E3,3.06E2,1.36E2,5.73E2,6.44E2,8.47E2,5.04E2,1.018E3,6.38E2,8.47E2,5.73E2,8.81E2,6.08E2,6.42E2,4.39E2,2.04E2,1.02E2,1E2,3.6E1,2.37E2,3.36E2,3.08E2,3.36E2,4.68E2,3.79E2,2.28E2,2.76E2,6.4E2,3.78E2,2.68E2,3.7E2,5.13E2,3.34E2,2.12E2,3.61E2,4.72E2,4.09E2,3.11E2,2.97E2,3.5E2,2.92E2,3.18E2,1.21E2,1.65E2,3.9E1,7.2E1,3E1,1.39E2,1.97E2,1.82E2,1.26E2,2.82E2,1.86E2,3.18E2,6.1E1,9.8E1,1.78E2,1.8E2,4.6E2,3.32E2,4.6E1,1.17E2,1.51E2,1.57E2,2.13E2,3.12E2,2.01E2,2.75E2,5.9E1,4.4E1,1.68E2,1.4E2,2.21E2,2.03E2,2.69E2,1.78E2,2.31E2,1.64E2,1.47E2,1.64E2,1.33E2,2.21E2,1.29E2,9.8E1,1.94E2,1.12E2,2.06E2,3.7E1,8.4E1],"tree_param":{"num_deleted":"0","num_feature":"4","num_nodes":"101","size_leaf_vector":"1"}},{"base_weights":[2.4082902E-1,-2.6176807E2,4.292075E2,-4.7511673E2,-1.13900024E2,3.020696E2,9.835918E2,-5.7726447E2,-3.9759763E2,-2.1295763E2,-3.0347473E1,1.7915396E2,4.4865433E2,7.831078E2,1.3778058E3,-6.4429694E2,-5.388297E2,-3.289091E2,-4.516652E2,-1.6687862E2,-2.9757513E2,2.117903E0,-1.1522471E2,1.2837206E2,2.488938E2,3.859554E2,5.462536E2,7.1192914E2,9.2023035E2,1.1831486E3,1.5590862E2,-7.12953E1,-6.241854E2,-4.863364E2,-5.880503E1,-4.0029797E2,-2.7769086E2,-5.070016E2,-4.0903372E2,-2.1605627E2,-1.17137825E2,-3.6125904E1,-2.500978E2,-5.508367E1,5.7958492E1,-1.8886528E2,-6.495154E1,1.8577283E2,5.8796272E1,3.3057162E2,1.7622375E2,4.5846024E2,3.191391E2,6.3552826E2,4.7159042E2,7.955325E1,6.218615E2,9.9094574E1,7.3220825E1,1.2385016E2,8.915082E1,-5.6532936E1,-6.493986E1,-5.1532635E1,-4.3380142E1,-2.9636429E1,-4.3204464E1,-2.4296375E1,-3.079509E1,-4.6237625E1,-5.3186672E1,-3.568071E1,-4.4847603E1,-1.4067409E1,-2.5523891E1,-2.0133996E0,-1.35750885E1,-1.901116E1,-2.9466995E1,-6.1628544E-1,-1.120505E1,1.0929314E1,1.9119205E0,-2.1141417E1,-1.4430611E1,6.614835E-1,-8.057761E0,2.3820229E1,1.5955078E1,1.377026E-3,9.006851E0,2.94749E1,3.9986847E1,2.1450394E1,1.2873474E1,4.1181057E1,5.3603237E1,2.4549461E1,3.723813E1,5.7221466E1,6.678708E1,4.060879E1,5.2007137E1,6.501806E1,4.701174E1],"categories":[],"categories_nodes":[],"categories_segments":[],"categories_sizes":[],"default_left":[0,0,0,0,0,0,0,0,0,0,0,0,0,0,0,0,0,0,0,0,0,0,0,0,0,0,0,0,0,0,0,0,0,0,0,0,0,0,0,0,0,0,0,0,0,0,0,0,0,0,0,0,0,0,0,0,0,0,0,0,0,0,0,0,0,0,0,0,0,0,0,0,0,0,0,0,0,0,0,0,0,0,0,0,0,0,0,0,0,0,0,0,0,0,0,0,0,0,0,0,0,0,0,0,0],"id":4,"left_children":[1,3,5,7,9,11,13,15,17,19,21,23,25,27,29,31,33,35,37,39,41,43,45,47,49,51,53,55,57,59,-1,-1,61,63,-1,65,67,69,71,73,75,-1,77,79,81,83,85,87,89,91,93,95,97,99,101,-1,103,-1,-1,-1,-1,-1,-1,-1,-1,-1,-1,-1,-1,-1,-1,-1,-1,-1,-1,-1,-1,-1,-1,-1,-1,-1,-1,-1,-1,-1,-1,-1,-1,-1,-1,-1,-1,-1,-1,-1,-1,-1,-1,-1,-1,-1,-1,-1,-1],"loss_changes":[9.7309926E8,1.6951344E8,2.3109933E8,1.7190944E7,2.6279748E7,4.806253E7,4.72896E7,2.09264E6,4.508576E6,5.615724E6,4.750849E6,5.120964E6,7.242576E6,3.327024E6,5.389344E6,2.4448E4,1.284928E6,1.921808E6,1.441616E6,2.281396E6,1.45468E6,3.9895165E6,1.753656E6,3.359763E6,3.574288E6,3.462832E6,2.85976E6,1.560976E6,1.08268E6,5.58624E5,0E0,0E0,3.5024E4,2.33344E5,0E0,6.30852E5,2.68806E5,8.696E4,6.63952E5,1.361182E6,8.476745E5,0E0,7.354E5,1.7188044E6,1.2579928E6,1.6341E5,3.1924888E5,5.97156E5,7.040525E5,5.9459E5,5.65017E5,1.063904E6,1.441696E6,5.3992E4,6.2082E5,0E0,2.78764E5,0E0,0E0,0E0,0E0,0E0,0E0,0E0,0E0,0E0,0E0,0E0,0E0,0E0,0E0,0E0,0E0,0E0,0E0,0E0,0E0,0E0,0E0,0E0,0E0,0E0,0E0,0E0,0E0,0E0,0E0,0E0,0E0,0E0,0E0,0E0,0E0,0E0,0E0,0E0,0E0,0E0,0E0,0E0,0E0,0E0,0E0,0E0,0E0],"parents":[2147483647,0,0,1,1,2,2,3,3,4,4,5,5,6,6,7,7,8,8,9,9,10,10,11,11,12,12,13,13,14,14,15,15,16,16,17,17,18,18,19,19,20,20,21,21,22,22,23,23,24,24,25,25,26,26,27,27,28,28,29,29,32,32,33,33,35,35,36,36,37,37,38,38,39,39,40,40,42,42,43,43,44,44,45,45,46,46,47,47,48,48,49,49,50,50,51,51,52,52,53,53,54,54,56,56],"right_children":[2,4,6,8,10,12,14,16,18,20,22,24,26,28,30,32,34,36,38,40,42,44,46,48,50,52,54,56,58,60,-1,-1,62,64,-1,66,68,70,72,74,76,-1,78,80,82,84,86,88,90,92,94,96,98,100,102,-1,104,-1,-1,-1,-1,-1,-1,-1,-1,-1,-1,-1,-1,-1,-1,-1,-1,-1,-1,-1,-1,-1,-1,-1,-1,-1,-1,-1,-1,-1,-1,-1,-1,-1,-1,-1,-1,-1,-1,-1,-1,-1,-1,-1,-1,-1,-1,-1,-1],"split_conditions":[3.3475664E3,2.7546528E3,4.232965E3,2.4580757E3,3.0305273E3,3.7050479E3,4.8718574E3,2.2977507E3,2.6470474E3,3.0360642E3,3.3547883E3,3.5300383E3,3.970571E3,4.5189497E3,5.33213E3,2.1944783E3,2.576514E3,2.5553298E3,2.6070864E3,2.8889792E3,2.8947566E3,3.1703904E3,3.1906116E3,3.4359136E3,3.5731287E3,3.8097646E3,4.0302715E3,4.314331E3,4.6450913E3,5.475122E3,1.5590862E2,-7.12953E1,2.2756038E3,2.4039119E3,-5.880503E1,2.3856165E3,2.5396826E3,2.7736704E3,2.8889792E3,2.7091553E3,2.7671707E3,-3.6125904E1,3.0878206E3,3.0543594E3,3.1581133E3,3.1458362E3,3.3468442E3,3.2782366E3,3.4308584E3,3.6188672E3,3.7373054E3,3.8319116E3,3.8420222E3,4.031475E3,4.0839539E3,7.955325E1,4.7300684E3,9.9094574E1,7.3220825E1,1.2385016E2,8.915082E1,-5.6532936E1,-6.493986E1,-5.1532635E1,-4.3380142E1,-2.9636429E1,-4.3204464E1,-2.4296375E1,-3.079509E1,-4.6237625E1,-5.3186672E1,-3.568071E1,-4.4847603E1,-1.4067409E1,-2.5523891E1,-2.0133996E0,-1.35750885E1,-1.901116E1,-2.9466995E1,-6.1628544E-1,-1.120505E1,1.0929314E1,1.9119205E0,-2.1141417E1,-1.4430611E1,6.614835E-1,-8.057761E0,2.3820229E1,1.5955078E1,1.377026E-3,9.006851E0,2.94749E1,3.9986847E1,2.1450394E1,1.2873474E1,4.1181057E1,5.3603237E1,2.4549461E1,3.723813E1,5.7221466E1,6.678708E1,4.060879E1,5.2007137E1,6.501806E1,4.701174E1],"split_indices":[3,3,3,3,3,3,3,3,1,1,1,3,3,3,3,3,0,3,3,3,3,3,3,2,2,2,2,2,1,0,0,0,1,3,0,2,2,1,1,2,2,0,2,2,2,3,2,2,3,3,2,3,3,3,3,0,0,0,0,0,0,0,0,0,0,0,0,0,0,0,0,0,0,0,0,0,0,0,0,0,0,0,0,0,0,0,0,0,0,0,0,0,0,0,0,0,0,0,0,0,0,0,0,0,0],"split_type":[0,0,0,0,0,0,0,0,0,0,0,0,0,0,0,0,0,0,0,0,0,0,0,0,0,0,0,0,0,0,0,0,0,0,0,0,0,0,0,0,0,0,0,0,0,0,0,0,0,0,0,0,0,0,0,0,0,0,0,0,0,0,0,0,0,0,0,0,0,0,0,0,0,0,0,0,0,0,0,0,0,0,0,0,0,0,0,0,0,0,0,0,0,0,0,0,0,0,0,0,0,0,0,0,0],"sum_hessian":[8.656E3,5.374E3,3.282E3,2.199E3,3.175E3,2.671E3,6.11E2,9.46E2,1.253E3,1.452E3,1.723E3,1.454E3,1.217E3,4.07E2,2.04E2,3.39E2,6.07E2,5.55E2,6.98E2,9.42E2,5.1E2,1.247E3,4.76E2,8.43E2,6.11E2,7.44E2,4.73E2,2.72E2,1.35E2,1.02E2,1.02E2,6.9E1,2.7E2,2.99E2,3.08E2,2.29E2,3.26E2,2.99E2,3.99E2,4.72E2,4.7E2,2.15E2,2.95E2,6.16E2,6.31E2,1.92E2,2.84E2,4.61E2,3.82E2,2.86E2,3.25E2,3.54E2,3.9E2,2.12E2,2.61E2,1.37E2,1.35E2,9.5E1,4E1,8.3E1,1.9E1,8.8E1,1.82E2,1.87E2,1.12E2,5.6E1,1.73E2,1.56E2,1.7E2,1.14E2,1.85E2,1.76E2,2.23E2,1.63E2,3.09E2,7.6E1,3.94E2,1.28E2,1.67E2,3.32E2,2.84E2,2.71E2,3.6E2,1.25E2,6.7E1,5.1E1,2.33E2,1.51E2,3.1E2,1.33E2,2.49E2,1.92E2,9.4E1,1.78E2,1.47E2,2.25E2,1.29E2,1.66E2,2.24E2,7.8E1,1.34E2,1.15E2,1.46E2,1.11E2,2.4E1],"tree_param":{"num_deleted":"0","num_feature":"4","num_nodes":"105","size_leaf_vector":"1"}},{"base_weights":[2.6556033E-1,-2.2037563E2,4.136473E2,-3.9989087E2,-6.663529E1,3.136483E2,9.9306915E2,-4.9608627E2,-3.105808E2,-1.4048529E2,1.7707655E1,2.0373433E2,4.6471866E2,8.311691E2,1.3486183E3,-5.43916E2,-4.3222147E2,-2.6847586E2,-3.8278946E2,-9.856611E1,-2.0650623E2,5.9501766E1,-4.3887684E1,1.4059845E2,2.611785E2,4.0269778E2,5.5429755E2,7.4854474E2,9.875462E2,1.2458013E3,1.5928317E2,-5.8504833E1,-5.118344E2,-3.788124E2,-4.9425976E1,-3.0000555E2,-1.9794403E2,-4.2791626E1,-3.3915823E2,-1.4290305E2,-5.3941647E1,-2.6107233E2,-1.495138E2,1.8311438E1,1.4066194E2,-1.1789459E2,1.0635132E1,1.8453462E2,4.6521053E1,3.0883087E2,1.7172453E2,4.524785E2,3.1608572E2,5.797604E2,4.1610214E2,8.142828E1,6.378558E1,1.0812493E2,8.1293274E1,1.3394154E2,1.0395696E2,-4.5108227E1,-5.4540707E1,-3.0262735E1,-4.067211E1,-2.6403095E1,-3.5225353E1,-1.14899235E1,-2.3393744E1,-3.003271E1,-3.7714672E1,-5.258718E0,-1.646189E1,-2.3063724E-1,-8.376803E0,-2.2190512E1,-2.8377247E1,-9.133057E0,-1.9814886E1,7.208402E0,-1.3157687E0,9.811468E0,1.6763987E1,-1.6393888E1,-9.313922E0,6.091202E0,-2.1209738E0,2.4261917E1,1.5241719E1,6.4378065E-1,8.871296E0,3.640746E1,2.7313665E1,1.3403772E1,2.2806051E1,4.0388664E1,5.1245075E1,2.6197916E1,3.6210125E1,5.2844948E1,6.2793743E1,3.219561E1,4.593297E1],"categories":[],"categories_nodes":[],"categories_segments":[],"categories_sizes":[],"default_left":[0,0,0,0,0,0,0,0,0,0,0,0,0,0,0,0,0,0,0,0,0,0,0,0,0,0,0,0,0,0,0,0,0,0,0,0,0,0,0,0,0,0,0,0,0,0,0,0,0,0,0,0,0,0,0,0,0,0,0,0,0,0,0,0,0,0,0,0,0,0,0,0,0,0,0,0,0,0,0,0,0,0,0,0,0,0,0,0,0,0,0,0,0,0,0,0,0,0,0,0,0,0,0],"id":5,"left_children":[1,3,5,7,9,11,13,15,17,19,21,23,25,27,29,31,33,35,37,39,41,43,45,47,49,51,53,55,57,59,-1,-1,61,63,-1,65,67,-1,69,71,73,75,77,79,81,83,85,87,89,91,93,95,97,99,101,-1,-1,-1,-1,-1,-1,-1,-1,-1,-1,-1,-1,-1,-1,-1,-1,-1,-1,-1,-1,-1,-1,-1,-1,-1,-1,-1,-1,-1,-1,-1,-1,-1,-1,-1,-1,-1,-1,-1,-1,-1,-1,-1,-1,-1,-1,-1,-1],"loss_changes":[7.896878E8,1.5576822E8,1.7426666E8,2.2217408E7,1.8950272E7,4.259608E7,2.4379616E7,3.589312E6,4.010824E6,4.468602E6,3.6607232E6,5.3672E6,5.788128E6,3.227392E6,1.455632E6,6.40112E5,1.605312E6,1.848676E6,8.31456E5,1.958931E6,1.917064E6,2.828958E6,2.3214162E6,2.934397E6,3.267604E6,2.629344E6,1.307056E6,9.72288E5,8.0628E5,5.57504E5,0E0,0E0,5.86136E5,5.04152E5,0E0,1.01784E6,7.7419E5,0E0,2.65842E5,9.68063E5,7.652335E5,2.2154E5,8.59124E5,9.536437E5,3.106855E5,2.6285275E5,5.328441E5,8.67802E5,3.8501997E5,9.00304E5,5.49043E5,9.76184E5,4.97696E5,5.80336E5,1.45135E5,0E0,0E0,0E0,0E0,0E0,0E0,0E0,0E0,0E0,0E0,0E0,0E0,0E0,0E0,0E0,0E0,0E0,0E0,0E0,0E0,0E0,0E0,0E0,0E0,0E0,0E0,0E0,0E0,0E0,0E0,0E0,0E0,0E0,0E0,0E0,0E0,0E0,0E0,0E0,0E0,0E0,0E0,0E0,0E0,0E0,0E0,0E0,0E0],"parents":[2147483647,0,0,1,1,2,2,3,3,4,4,5,5,6,6,7,7,8,8,9,9,10,10,11,11,12,12,13,13,14,14,15,15,16,16,17,17,18,18,19,19,20,20,21,21,22,22,23,23,24,24,25,25,26,26,27,27,28,28,29,29,32,32,33,33,35,35,36,36,38,38,39,39,40,40,41,41,42,42,43,43,44,44,45,45,46,46,47,47,48,48,49,49,50,50,51,51,52,52,53,53,54,54],"right_children":[2,4,6,8,10,12,14,16,18,20,22,24,26,28,30,32,34,36,38,40,42,44,46,48,50,52,54,56,58,60,-1,-1,62,64,-1,66,68,-1,70,72,74,76,78,80,82,84,86,88,90,92,94,96,98,100,102,-1,-1,-1,-1,-1,-1,-1,-1,-1,-1,-1,-1,-1,-1,-1,-1,-1,-1,-1,-1,-1,-1,-1,-1,-1,-1,-1,-1,-1,-1,-1,-1,-1,-1,-1,-1,-1,-1,-1,-1,-1,-1,-1,-1,-1,-1,-1,-1],"split_conditions":[3.402693E3,2.8389077E3,4.368976E3,2.5331829E3,3.1316333E3,3.8097646E3,5.1448433E3,2.4039119E3,2.9828633E3,3.0642292E3,3.296532E3,3.5651846E3,4.0663809E3,4.7300684E3,5.679982E3,2.2871587E3,2.586143E3,2.7467087E3,2.7033777E3,2.9828633E3,3.0107876E3,3.2782366E3,3.28931E3,3.5536296E3,3.7866545E3,3.9700896E3,4.4103813E3,4.4103813E3,4.7300684E3,5.33213E3,1.5928317E2,-5.8504833E1,2.3856165E3,2.3661174E3,-4.9425976E1,2.6311592E3,2.654269E3,-4.2791626E1,2.939532E3,2.7317837E3,2.9267734E3,3.0712104E3,3.1833896E3,3.1015422E3,3.3148274E3,3.2036108E3,3.388731E3,3.3552698E3,3.4968179E3,3.536538E3,3.727917E3,3.9188145E3,3.9592568E3,4.1783193E3,4.2035957E3,8.142828E1,6.378558E1,1.0812493E2,8.1293274E1,1.3394154E2,1.0395696E2,-4.5108227E1,-5.4540707E1,-3.0262735E1,-4.067211E1,-2.6403095E1,-3.5225353E1,-1.14899235E1,-2.3393744E1,-3.003271E1,-3.7714672E1,-5.258718E0,-1.646189E1,-2.3063724E-1,-8.376803E0,-2.2190512E1,-2.8377247E1,-9.133057E0,-1.9814886E1,7.208402E0,-1.3157687E0,9.811468E0,1.6763987E1,-1.6393888E1,-9.313922E0,6.091202E0,-2.1209738E0,2.4261917E1,1.5241719E1,6.4378065E-1,8.871296E0,3.640746E1,2.7313665E1,1.3403772E1,2.2806051E1,4.0388664E1,5.1245075E1,2.6197916E1,3.6210125E1,5.2844948E1,6.2793743E1,3.219561E1,4.593297E1],"split_indices":[3,3,3,3,3,3,3,3,0,1,2,3,3,3,3,3,1,3,3,3,3,3,3,2,1,2,1,1,0,0,0,0,1,2,0,1,2,0,2,2,2,2,2,2,3,3,2,2,3,2,3,3,3,3,3,0,0,0,0,0,0,0,0,0,0,0,0,0,0,0,0,0,0,0,0,0,0,0,0,0,0,0,0,0,0,0,0,0,0,0,0,0,0,0,0,0,0,0,0,0,0,0,0],"split_type":[0,0,0,0,0,0,0,0,0,0,0,0,0,0,0,0,0,0,0,0,0,0,0,0,0,0,0,0,0,0,0,0,0,0,0,0,0,0,0,0,0,0,0,0,0,0,0,0,0,0,0,0,0,0,0,0,0,0,0,0,0,0,0,0,0,0,0,0,0,0,0,0,0,0,0,0,0,0,0,0,0,0,0,0,0,0,0,0,0,0,0,0,0,0,0,0,0,0,0,0,0,0,0],"sum_hessian":[8.656E3,5.644E3,3.012E3,2.603E3,3.041E3,2.57E3,4.42E2,1.251E3,1.352E3,1.621E3,1.42E3,1.489E3,1.081E3,3.06E2,1.36E2,7.11E2,5.4E2,8.57E2,4.95E2,9.93E2,6.28E2,8.46E2,5.74E2,7.11E2,7.78E2,6.42E2,4.39E2,2.04E2,1.02E2,1E2,3.6E1,3.04E2,4.07E2,2.94E2,2.46E2,5.9E2,2.67E2,2.39E2,2.56E2,4.97E2,4.96E2,3.19E2,3.09E2,5.62E2,2.84E2,2.43E2,3.31E2,4.84E2,2.27E2,5.06E2,2.72E2,4.05E2,2.37E2,3.68E2,7.1E1,1.24E2,8E1,6.3E1,3.9E1,6.5E1,3.5E1,1.5E2,2.57E2,8.2E1,2.12E2,3.53E2,2.37E2,8.2E1,1.85E2,1.31E2,1.25E2,9.7E1,4E2,1.82E2,3.14E2,1.21E2,1.98E2,1.42E2,1.67E2,2.07E2,3.55E2,1.12E2,1.72E2,8.3E1,1.6E2,1.28E2,2.03E2,1.7E2,3.14E2,1.17E2,1.1E2,1.95E2,3.11E2,1.65E2,1.07E2,2.28E2,1.77E2,1.12E2,1.25E2,1.84E2,1.84E2,2.5E1,4.6E1],"tree_param":{"num_deleted":"0","num_feature":"4","num_nodes":"103","size_leaf_vector":"1"}},{"base_weights":[3.1337506E-1,-1.84996E2,4.0012735E2,-3.5285715E2,-4.046112E1,3.087027E2,9.208733E2,-4.403152E2,-2.6703992E2,-1.0625709E2,4.499828E1,2.1426933E2,4.3918576E2,7.690672E2,1.2166556E3,-4.897465E2,-3.8489462E2,-2.2583069E2,-3.2949442E2,-7.667115E1,-1.7798653E2,8.2690895E1,-9.459494E0,1.6995114E2,2.801083E2,3.9027823E2,5.3036725E2,6.9134735E2,8.9063055E2,1.1235767E3,1.4378535E2,-5.4879585E1,-4.7035767E2,-2.8645673E2,-4.1172336E2,-2.5869443E2,-1.7506296E2,-3.700922E2,-2.853818E2,-1.1817067E2,-2.4551306E1,-2.375081E2,-1.3204901E2,4.095696E1,1.492027E2,-9.1856186E1,2.9101906E1,2.272639E2,9.536945E1,3.5576434E2,2.0907657E2,4.5905276E2,3.280424E2,6.048126E2,4.6204034E2,7.455123E1,5.6355385E1,9.748137E1,7.336719E1,1.2075034E2,9.385003E1,-4.2273018E1,-4.9889484E1,-3.1128315E1,-2.135445E1,-3.8065304E1,-4.572747E1,-2.2275076E1,-3.0829718E1,-9.6265135E0,-2.0670843E1,-3.2844902E1,-3.863928E1,-2.4169504E1,-3.1940031E1,-8.356275E0,-1.6507427E1,1.9536112E-1,-6.7508135E0,-2.5930668E1,-2.0616808E1,-6.6816773E0,-1.5950763E1,9.570381E0,1.1030666E0,2.0353415E1,1.2587522E1,-1.3586848E1,-7.672911E0,6.2519813E0,-1.3033965E0,2.0129166E1,2.928539E1,4.192444E0,1.2569017E1,3.7540676E1,2.9976679E1,2.4617918E1,1.6287518E1,4.1113438E1,5.2361614E1,2.736706E1,3.7429348E1,5.5112682E1,6.54827E1,4.809763E1,3.3622143E1],"categories":[],"categories_nodes":[],"categories_segments":[],"categories_sizes":[],"default_left":[0,0,0,0,0,0,0,0,0,0,0,0,0,0,0,0,0,0,0,0,0,0,0,0,0,0,0,0,0,0,0,0,0,0,0,0,0,0,0,0,0,0,0,0,0,0,0,0,0,0,0,0,0,0,0,0,0,0,0,0,0,0,0,0,0,0,0,0,0,0,0,0,0,0,0,0,0,0,0,0,0,0,0,0,0,0,0,0,0,0,0,0,0,0,0,0,0,0,0,0,0,0,0,0,0,0,0],"id":6,"left_children":[1,3,5,7,9,11,13,15,17,19,21,23,25,27,29,31,33,35,37,39,41,43,45,47,49,51,53,55,57,59,-1,-1,61,63,65,67,69,71,73,75,77,79,81,83,85,87,89,91,93,95,97,99,101,103,105,-1,-1,-1,-1,-1,-1,-1,-1,-1,-1,-1,-1,-1,-1,-1,-1,-1,-1,-1,-1,-1,-1,-1,-1,-1,-1,-1,-1,-1,-1,-1,-1,-1,-1,-1,-1,-1,-1,-1,-1,-1,-1,-1,-1,-1,-1,-1,-1,-1,-1,-1,-1],"loss_changes":[6.414649E8,1.4351846E8,1.3025971E8,2.0424704E7,1.7885552E7,2.8665344E7,1.7429024E7,3.520784E6,3.487592E6,3.799916E6,2.841658E6,3.909024E6,4.158816E6,1.963536E6,1.20512E6,5.5704E5,1.5802E6,1.35118E6,8.7578E5,2.7526945E6,1.401396E6,2.264493E6,1.8042204E6,3.45348E6,2.84906E6,2.59304E6,1.444928E6,7.63512E5,6.45776E5,4.35584E5,0E0,0E0,5.2712E5,1.88758E5,5.37832E5,8.3348E5,8.07974E5,6.4516E4,3.19606E5,1.137081E6,6.445609E5,1.01619E5,5.23116E5,8.24683E5,3.736155E5,1.1008075E5,5.457466E5,7.22964E5,5.70005E5,1.7565E5,4.45021E5,7.19044E5,7.52588E5,6.6028E4,2.69516E5,0E0,0E0,0E0,0E0,0E0,0E0,0E0,0E0,0E0,0E0,0E0,0E0,0E0,0E0,0E0,0E0,0E0,0E0,0E0,0E0,0E0,0E0,0E0,0E0,0E0,0E0,0E0,0E0,0E0,0E0,0E0,0E0,0E0,0E0,0E0,0E0,0E0,0E0,0E0,0E0,0E0,0E0,0E0,0E0,0E0,0E0,0E0,0E0,0E0,0E0,0E0,0E0],"parents":[2147483647,0,0,1,1,2,2,3,3,4,4,5,5,6,6,7,7,8,8,9,9,10,10,11,11,12,12,13,13,14,14,15,15,16,16,17,17,18,18,19,19,20,20,21,21,22,22,23,23,24,24,25,25,26,26,27,27,28,28,29,29,32,32,33,33,34,34,35,35,36,36,37,37,38,38,39,39,40,40,41,41,42,42,43,43,44,44,45,45,46,46,47,47,48,48,49,49,50,50,51,51,52,52,53,53,54,54],"right_children":[2,4,6,8,10,12,14,16,18,20,22,24,26,28,30,32,34,36,38,40,42,44,46,48,50,52,54,56,58,60,-1,-1,62,64,66,68,70,72,74,76,78,80,82,84,86,88,90,92,94,96,98,100,102,104,106,-1,-1,-1,-1,-1,-1,-1,-1,-1,-1,-1,-1,-1,-1,-1,-1,-1,-1,-1,-1,-1,-1,-1,-1,-1,-1,-1,-1,-1,-1,-1,-1,-1,-1,-1,-1,-1,-1,-1,-1,-1,-1,-1,-1,-1,-1,-1,-1,-1,-1,-1,-1],"split_conditions":[3.459505E3,2.8637026E3,4.4103813E3,2.5553298E3,3.1906116E3,3.8542993E3,5.1448433E3,2.4039119E3,2.957346E3,3.202648E3,3.3552698E3,3.6761604E3,4.144136E3,4.7300684E3,5.679982E3,2.2404573E3,2.4039119E3,2.7467087E3,2.7317837E3,3.0305273E3,3.0420823E3,3.3148274E3,3.3220493E3,3.5731287E3,3.7486196E3,3.9428872E3,4.203355E3,4.51245E3,4.7300684E3,5.33213E3,1.4378535E2,-5.4879585E1,2.4457986E3,2.4857595E3,2.703137E3,2.6311592E3,2.654269E3,2.9267734E3,2.939532E3,2.939532E3,3.0543594E3,2.9828633E3,3.2207026E3,3.1374106E3,3.2036108E3,3.235387E3,3.4891145E3,3.582517E3,3.5452043E3,3.6857896E3,3.8752427E3,3.970571E3,3.9951252E3,4.232965E3,4.6450913E3,7.455123E1,5.6355385E1,9.748137E1,7.336719E1,1.2075034E2,9.385003E1,-4.2273018E1,-4.9889484E1,-3.1128315E1,-2.135445E1,-3.8065304E1,-4.572747E1,-2.2275076E1,-3.0829718E1,-9.6265135E0,-2.0670843E1,-3.2844902E1,-3.863928E1,-2.4169504E1,-3.1940031E1,-8.356275E0,-1.6507427E1,1.9536112E-1,-6.7508135E0,-2.5930668E1,-2.0616808E1,-6.6816773E0,-1.5950763E1,9.570381E0,1.1030666E0,2.0353415E1,1.2587522E1,-1.3586848E1,-7.672911E0,6.2519813E0,-1.3033965E0,2.0129166E1,2.928539E1,4.192444E0,1.2569017E1,3.7540676E1,2.9976679E1,2.4617918E1,1.6287518E1,4.1113438E1,5.2361614E1,2.736706E1,3.7429348E1,5.5112682E1,6.54827E1,4.809763E1,3.3622143E1],"split_indices":[3,3,3,3,3,3,3,3,0,1,2,3,3,3,3,3,2,3,3,3,3,3,3,2,2,2,2,1,0,0,0,0,0,3,1,1,2,1,2,2,2,3,2,2,2,3,2,3,3,2,2,3,3,3,1,0,0,0,0,0,0,0,0,0,0,0,0,0,0,0,0,0,0,0,0,0,0,0,0,0,0,0,0,0,0,0,0,0,0,0,0,0,0,0,0,0,0,0,0,0,0,0,0,0,0,0,0],"split_type":[0,0,0,0,0,0,0,0,0,0,0,0,0,0,0,0,0,0,0,0,0,0,0,0,0,0,0,0,0,0,0,0,0,0,0,0,0,0,0,0,0,0,0,0,0,0,0,0,0,0,0,0,0,0,0,0,0,0,0,0,0,0,0,0,0,0,0,0,0,0,0,0,0,0,0,0,0,0,0,0,0,0,0,0,0,0,0,0,0,0,0,0,0,0,0,0,0,0,0,0,0,0,0,0,0,0,0],"sum_hessian":[8.656E3,5.915E3,2.741E3,2.736E3,3.179E3,2.333E3,4.08E2,1.353E3,1.383E3,1.796E3,1.383E3,1.355E3,9.78E2,2.72E2,1.36E2,7.11E2,6.42E2,8.36E2,5.47E2,1.273E3,5.23E2,8.17E2,5.66E2,8.12E2,5.43E2,6.4E2,3.38E2,1.7E2,1.02E2,1E2,3.6E1,1.69E2,5.42E2,1.4E2,5.02E2,5.05E2,3.31E2,2.81E2,2.66E2,7.08E2,5.65E2,2.26E2,2.97E2,5.03E2,3.14E2,1.8E2,3.86E2,4.58E2,3.54E2,2.61E2,2.82E2,3.01E2,3.39E2,1.58E2,1.8E2,1.16E2,5.4E1,6.3E1,3.9E1,6.5E1,3.5E1,2.09E2,3.33E2,1.02E2,3.8E1,3.04E2,1.98E2,2.96E2,2.09E2,9.6E1,2.35E2,8.5E1,1.96E2,1.2E2,1.46E2,4.09E2,2.99E2,3.5E2,2.15E2,1.29E2,9.7E1,8.9E1,2.08E2,1.77E2,3.26E2,9.2E1,2.22E2,4.4E1,1.36E2,2.15E2,1.71E2,3.31E2,1.27E2,1.29E2,2.25E2,1.89E2,7.2E1,1.54E2,1.28E2,1.77E2,1.24E2,1.59E2,1.8E2,8.2E1,7.6E1,1.54E2,2.6E1],"tree_param":{"num_deleted":"0","num_feature":"4","num_nodes":"107","size_leaf_vector":"1"}},{"base_weights":[3.5453352E-1,-1.7426212E2,3.4508884E2,-3.1775204E2,-4.3771854E1,2.6564923E2,8.3039996E2,-3.9088605E2,-2.3456596E2,-1.040049E2,2.3518436E1,1.6887148E2,3.793635E2,6.932658E2,1.097606E3,-4.459492E2,-3.4673386E2,-1.9630293E2,-2.9691028E2,-7.1043526E1,-1.6153589E2,6.2855698E1,-2.5257162E1,1.2975311E2,2.2164267E2,3.249386E2,4.562966E2,6.229781E2,8.0322626E2,1.0133436E3,1.2979544E2,-5.1624233E1,-4.319237E2,-3.0346304E2,-3.930066E2,-2.2653912E2,-1.5066681E2,-3.37725E1,-2.5735178E2,-1.0876916E2,-2.4436323E1,-2.231276E2,-1.204825E2,2.8009922E1,1.281211E2,-8.458981E1,2.0466173E1,1.8669475E2,7.20388E1,2.8672504E2,1.5758435E2,3.623013E2,2.4240947E2,4.9039627E2,3.763303E2,6.825225E1,5.273138E1,8.695948E1,6.429608E1,1.0885825E2,8.472572E1,-3.881211E1,-4.5734207E1,-2.5153677E1,-3.245744E1,-4.2126595E1,-3.698509E1,-1.8109167E1,-2.6300343E1,-8.673791E0,-1.7755764E1,-2.1249922E1,-2.8285269E1,-7.2799416E0,-1.47000475E1,4.1310496E0,-3.6732235E0,-2.4438293E1,-1.8858826E1,-9.067222E0,-1.6131002E1,6.953799E0,-6.54886E-1,8.331641E0,1.5952372E1,-1.1767219E1,-5.855442E0,4.722595E0,-3.7692876E0,8.520105E0,1.9928246E1,9.806919E0,2.6069953E0,3.4677002E1,2.6063364E1,1.7600294E1,9.055324E0,4.1235603E1,3.3195553E1,2.6993391E1,1.819316E1,4.4046032E1,5.373601E1,2.9162024E1,4.044805E1],"categories":[],"categories_nodes":[],"categories_segments":[],"categories_sizes":[],"default_left":[0,0,0,0,0,0,0,0,0,0,0,0,0,0,0,0,0,0,0,0,0,0,0,0,0,0,0,0,0,0,0,0,0,0,0,0,0,0,0,0,0,0,0,0,0,0,0,0,0,0,0,0,0,0,0,0,0,0,0,0,0,0,0,0,0,0,0,0,0,0,0,0,0,0,0,0,0,0,0,0,0,0,0,0,0,0,0,0,0,0,0,0,0,0,0,0,0,0,0,0,0,0,0,0,0],"id":7,"left_children":[1,3,5,7,9,11,13,15,17,19,21,23,25,27,29,31,33,35,37,39,41,43,45,47,49,51,53,55,57,59,-1,-1,61,63,65,67,69,-1,71,73,75,77,79,81,83,85,87,89,91,93,95,97,99,101,103,-1,-1,-1,-1,-1,-1,-1,-1,-1,-1,-1,-1,-1,-1,-1,-1,-1,-1,-1,-1,-1,-1,-1,-1,-1,-1,-1,-1,-1,-1,-1,-1,-1,-1,-1,-1,-1,-1,-1,-1,-1,-1,-1,-1,-1,-1,-1,-1,-1,-1],"loss_changes":[5.211799E8,1.075931E8,1.1200701E8,1.6559488E7,1.2206328E7,2.7481488E7,1.422608E7,3.382704E6,3.002296E6,3.001746E6,2.7318952E6,2.766332E6,4.66688E6,1.609592E6,9.97552E5,4.11936E5,1.506584E6,1.067E6,6.97768E5,1.7767275E6,1.434617E6,1.7884992E6,1.727127E6,2.5499E6,2.35203E6,1.999712E6,1.10796E6,6.14164E5,5.36448E5,3.39792E5,0E0,0E0,4.27072E5,3.8316E5,9.8744E4,7.44518E5,5.364305E5,0E0,2.26983E5,7.580195E5,3.6853878E5,1.22766E5,4.101345E5,7.3956244E5,3.722225E5,2.3169325E5,5.6205644E5,4.83831E5,4.62916E5,3.5455E5,3.44571E5,5.67908E5,3.07119E5,5.34888E5,2.30198E5,0E0,0E0,0E0,0E0,0E0,0E0,0E0,0E0,0E0,0E0,0E0,0E0,0E0,0E0,0E0,0E0,0E0,0E0,0E0,0E0,0E0,0E0,0E0,0E0,0E0,0E0,0E0,0E0,0E0,0E0,0E0,0E0,0E0,0E0,0E0,0E0,0E0,0E0,0E0,0E0,0E0,0E0,0E0,0E0,0E0,0E0,0E0,0E0,0E0,0E0],"parents":[2147483647,0,0,1,1,2,2,3,3,4,4,5,5,6,6,7,7,8,8,9,9,10,10,11,11,12,12,13,13,14,14,15,15,16,16,17,17,18,18,19,19,20,20,21,21,22,22,23,23,24,24,25,25,26,26,27,27,28,28,29,29,32,32,33,33,34,34,35,35,36,36,38,38,39,39,40,40,41,41,42,42,43,43,44,44,45,45,46,46,47,47,48,48,49,49,50,50,51,51,52,52,53,53,54,54],"right_children":[2,4,6,8,10,12,14,16,18,20,22,24,26,28,30,32,34,36,38,40,42,44,46,48,50,52,54,56,58,60,-1,-1,62,64,66,68,70,-1,72,74,76,78,80,82,84,86,88,90,92,94,96,98,100,102,104,-1,-1,-1,-1,-1,-1,-1,-1,-1,-1,-1,-1,-1,-1,-1,-1,-1,-1,-1,-1,-1,-1,-1,-1,-1,-1,-1,-1,-1,-1,-1,-1,-1,-1,-1,-1,-1,-1,-1,-1,-1,-1,-1,-1,-1,-1,-1,-1,-1,-1],"split_conditions":[3.4236365E3,2.8637026E3,4.4103813E3,2.586143E3,3.152095E3,3.7991726E3,5.1448433E3,2.3856165E3,2.8889792E3,3.0642292E3,3.296532E3,3.6097195E3,4.0663809E3,4.7300684E3,5.679982E3,2.2118108E3,2.586143E3,2.7467087E3,2.7467087E3,3.0050103E3,3.0249905E3,3.28931E3,3.3100127E3,3.5045212E3,3.695178E3,4.0285864E3,4.2580005E3,4.4103813E3,4.9756113E3,5.33213E3,1.2979544E2,-5.1624233E1,2.4200405E3,2.3759873E3,2.4857595E3,2.6070864E3,2.654269E3,-3.37725E1,2.9267734E3,2.8947566E3,2.8579253E3,2.9828633E3,3.2207026E3,3.1374106E3,2.9267734E3,3.235387E3,3.483578E3,2.8579253E3,3.664124E3,3.4968179E3,3.8983525E3,3.774859E3,4.3420146E3,4.1783193E3,4.1783193E3,6.825225E1,5.273138E1,8.695948E1,6.429608E1,1.0885825E2,8.472572E1,-3.881211E1,-4.5734207E1,-2.5153677E1,-3.245744E1,-4.2126595E1,-3.698509E1,-1.8109167E1,-2.6300343E1,-8.673791E0,-1.7755764E1,-2.1249922E1,-2.8285269E1,-7.2799416E0,-1.47000475E1,4.1310496E0,-3.6732235E0,-2.4438293E1,-1.8858826E1,-9.067222E0,-1.6131002E1,6.953799E0,-6.54886E-1,8.331641E0,1.5952372E1,-1.1767219E1,-5.855442E0,4.722595E0,-3.7692876E0,8.520105E0,1.9928246E1,9.806919E0,2.6069953E0,3.4677002E1,2.6063364E1,1.7600294E1,9.055324E0,4.1235603E1,3.3195553E1,2.6993391E1,1.819316E1,4.4046032E1,5.373601E1,2.9162024E1,4.044805E1],"split_indices":[3,3,3,3,3,3,3,3,1,2,2,3,3,3,3,3,1,3,3,3,3,3,3,2,2,1,1,1,1,0,0,0,0,2,3,2,2,0,2,2,2,3,2,2,0,3,2,0,2,2,2,2,0,3,3,0,0,0,0,0,0,0,0,0,0,0,0,0,0,0,0,0,0,0,0,0,0,0,0,0,0,0,0,0,0,0,0,0,0,0,0,0,0,0,0,0,0,0,0,0,0,0,0,0,0],"split_type":[0,0,0,0,0,0,0,0,0,0,0,0,0,0,0,0,0,0,0,0,0,0,0,0,0,0,0,0,0,0,0,0,0,0,0,0,0,0,0,0,0,0,0,0,0,0,0,0,0,0,0,0,0,0,0,0,0,0,0,0,0,0,0,0,0,0,0,0,0,0,0,0,0,0,0,0,0,0,0,0,0,0,0,0,0,0,0,0,0,0,0,0,0,0,0,0,0,0,0,0,0,0,0,0,0],"sum_hessian":[8.656E3,5.746E3,2.91E3,2.736E3,3.01E3,2.502E3,4.08E2,1.454E3,1.282E3,1.588E3,1.422E3,1.353E3,1.149E3,2.72E2,1.36E2,6.43E2,8.11E2,7.97E2,4.85E2,1.011E3,5.77E2,7.87E2,6.35E2,7.79E2,5.74E2,6.76E2,4.73E2,1.7E2,1.02E2,1E2,3.6E1,1.01E2,5.42E2,4.23E2,3.88E2,4.77E2,3.2E2,2.35E2,2.5E2,5.58E2,4.53E2,2.29E2,3.48E2,5.14E2,2.73E2,2.76E2,3.59E2,3.91E2,3.88E2,2.83E2,2.91E2,4.63E2,2.13E2,3.28E2,1.45E2,1.01E2,6.9E1,6.9E1,3.3E1,6.5E1,3.5E1,2.05E2,3.37E2,1.26E2,2.97E2,1.67E2,2.21E2,2.15E2,2.62E2,9.6E1,2.24E2,9.4E1,1.56E2,2.89E2,2.69E2,7.1E1,3.82E2,1.38E2,9.1E1,2.03E2,1.45E2,2.33E2,2.81E2,1.14E2,1.59E2,1.2E2,1.56E2,2.46E2,1.13E2,4.4E1,3.47E2,2.47E2,1.41E2,8.2E1,2.01E2,2.27E2,6.4E1,1.7E2,2.93E2,1.44E2,6.9E1,1.64E2,1.64E2,3.9E1,1.06E2],"tree_param":{"num_deleted":"0","num_feature":"4","num_nodes":"105","size_leaf_vector":"1"}},{"base_weights":[3.7772417E-1,-1.4484305E2,3.374435E2,-2.773039E2,-1.9408144E1,2.643965E2,7.715141E2,-3.5552823E2,-2.074423E2,-7.047206E1,4.985232E1,1.8922217E2,3.7267413E2,6.429271E2,9.9020575E2,-4.156536E2,-3.2395825E2,-1.731798E2,-2.5866782E2,-4.5766003E1,-1.2395728E2,8.865319E1,7.7292137E0,1.4745023E2,2.3297359E2,3.275751E2,4.3720764E2,5.553464E2,7.0300183E2,9.139259E2,1.171667E2,-5.1109028E1,-4.0688055E2,-2.7050934E2,-3.5355515E2,-2.0887222E2,-1.3854382E2,-2.9133755E2,-2.1901505E2,-7.406894E1,5.1416883E0,-1.797331E2,-9.3844025E1,5.573326E1,1.3545149E2,-4.340358E1,4.5289303E1,1.9301341E2,8.07937E1,2.9794604E2,1.777311E2,3.9579398E2,2.748541E2,4.9922708E2,3.8615305E2,6.263689E1,4.5526752E1,7.52862E1,5.347602E1,9.813735E1,7.648851E1,-3.70024E1,-4.2730663E1,-2.9735428E1,-2.2230358E1,-3.7622364E1,-3.249556E1,-1.533581E1,-2.347974E1,-9.902474E0,-1.7359259E1,-3.1344843E1,-2.6416412E1,-1.774539E1,-2.4568474E1,-4.2345967E0,-1.1617838E1,2.1108556E0,-5.878421E0,-2.1485613E1,-1.6239958E1,-5.6311173E0,-1.2597436E1,1.0666391E1,2.8127637E0,7.141025E0,1.5947006E1,-7.1515617E0,-1.9230312E0,6.782757E0,-2.8879797E0,2.31765E1,1.59242525E1,4.3195934E0,1.0146214E1,2.7187887E1,3.4032207E1,1.3260645E1,2.0578878E1,3.5899178E1,4.486953E1,2.9690186E1,1.9386337E1,4.4958683E1,5.4285255E1,3.369325E1,4.3951157E1],"categories":[],"categories_nodes":[],"categories_segments":[],"categories_sizes":[],"default_left":[0,0,0,0,0,0,0,0,0,0,0,0,0,0,0,0,0,0,0,0,0,0,0,0,0,0,0,0,0,0,0,0,0,0,0,0,0,0,0,0,0,0,0,0,0,0,0,0,0,0,0,0,0,0,0,0,0,0,0,0,0,0,0,0,0,0,0,0,0,0,0,0,0,0,0,0,0,0,0,0,0,0,0,0,0,0,0,0,0,0,0,0,0,0,0,0,0,0,0,0,0,0,0,0,0,0,0],"id":8,"left_children":[1,3,5,7,9,11,13,15,17,19,21,23,25,27,29,31,33,35,37,39,41,43,45,47,49,51,53,55,57,59,-1,-1,61,63,65,67,69,71,73,75,77,79,81,83,85,87,89,91,93,95,97,99,101,103,105,-1,-1,-1,-1,-1,-1,-1,-1,-1,-1,-1,-1,-1,-1,-1,-1,-1,-1,-1,-1,-1,-1,-1,-1,-1,-1,-1,-1,-1,-1,-1,-1,-1,-1,-1,-1,-1,-1,-1,-1,-1,-1,-1,-1,-1,-1,-1,-1,-1,-1,-1,-1],"loss_changes":[4.237999E8,1.0053326E8,8.245757E7,1.6009376E7,1.0999146E7,1.8105424E7,9.90872E6,2.498096E6,2.687912E6,2.359649E6,2.1567402E6,2.378056E6,2.516888E6,8.67056E5,8.25504E5,1.88912E5,1.35024E6,1.128186E6,7.4196E5,1.7668472E6,9.32102E5,1.050841E6,1.2195958E6,2.04355E6,2.254928E6,1.840552E6,9.88272E5,4.39836E5,7.55024E5,2.64656E5,0E0,0E0,1.72384E5,3.60944E5,2.57E5,6.24592E5,6.44885E5,1.2028E5,2.72303E5,1.0477195E6,4.493265E5,8.50425E4,4.3789925E5,5.664186E5,4.23917E5,1.8142628E5,6.137802E5,4.8918E5,2.1087038E5,2.3223E5,4.15844E5,2.94496E5,4.9421E5,1.1326E5,4.0082E5,0E0,0E0,0E0,0E0,0E0,0E0,0E0,0E0,0E0,0E0,0E0,0E0,0E0,0E0,0E0,0E0,0E0,0E0,0E0,0E0,0E0,0E0,0E0,0E0,0E0,0E0,0E0,0E0,0E0,0E0,0E0,0E0,0E0,0E0,0E0,0E0,0E0,0E0,0E0,0E0,0E0,0E0,0E0,0E0,0E0,0E0,0E0,0E0,0E0,0E0,0E0,0E0],"parents":[2147483647,0,0,1,1,2,2,3,3,4,4,5,5,6,6,7,7,8,8,9,9,10,10,11,11,12,12,13,13,14,14,15,15,16,16,17,17,18,18,19,19,20,20,21,21,22,22,23,23,24,24,25,25,26,26,27,27,28,28,29,29,32,32,33,33,34,34,35,35,36,36,37,37,38,38,39,39,40,40,41,41,42,42,43,43,44,44,45,45,46,46,47,47,48,48,49,49,50,50,51,51,52,52,53,53,54,54],"right_children":[2,4,6,8,10,12,14,16,18,20,22,24,26,28,30,32,34,36,38,40,42,44,46,48,50,52,54,56,58,60,-1,-1,62,64,66,68,70,72,74,76,78,80,82,84,86,88,90,92,94,96,98,100,102,104,106,-1,-1,-1,-1,-1,-1,-1,-1,-1,-1,-1,-1,-1,-1,-1,-1,-1,-1,-1,-1,-1,-1,-1,-1,-1,-1,-1,-1,-1,-1,-1,-1,-1,-1,-1,-1,-1,-1,-1,-1,-1,-1,-1,-1,-1,-1,-1,-1,-1,-1,-1,-1],"split_conditions":[3.489596E3,2.9039043E3,4.446972E3,2.5664033E3,3.2288875E3,3.8877605E3,5.1448433E3,2.3372302E3,2.957346E3,3.202648E3,3.3552698E3,3.6761604E3,4.144136E3,4.6450913E3,5.679982E3,2.16535E3,2.451576E3,2.7368389E3,2.7671707E3,3.0878206E3,3.0546E3,3.3326414E3,3.3752502E3,3.5921462E3,3.7486196E3,3.9428872E3,4.203355E3,4.51245E3,4.9756113E3,5.33213E3,1.171667E2,-5.1109028E1,2.2977507E3,2.467464E3,2.4780562E3,2.548108E3,2.7317837E3,2.6874897E3,2.9575867E3,2.9766042E3,3.1374106E3,3.4089521E3,3.283292E3,3.1581133E3,2.8810352E3,3.3100127E3,3.609238E3,3.452524E3,3.5731287E3,3.7876174E3,3.7750996E3,3.9951252E3,4.3420146E3,4.232965E3,4.3148125E3,6.263689E1,4.5526752E1,7.52862E1,5.347602E1,9.813735E1,7.648851E1,-3.70024E1,-4.2730663E1,-2.9735428E1,-2.2230358E1,-3.7622364E1,-3.249556E1,-1.533581E1,-2.347974E1,-9.902474E0,-1.7359259E1,-3.1344843E1,-2.6416412E1,-1.774539E1,-2.4568474E1,-4.2345967E0,-1.1617838E1,2.1108556E0,-5.878421E0,-2.1485613E1,-1.6239958E1,-5.6311173E0,-1.2597436E1,1.0666391E1,2.8127637E0,7.141025E0,1.5947006E1,-7.1515617E0,-1.9230312E0,6.782757E0,-2.8879797E0,2.31765E1,1.59242525E1,4.3195934E0,1.0146214E1,2.7187887E1,3.4032207E1,1.3260645E1,2.0578878E1,3.5899178E1,4.486953E1,2.9690186E1,1.9386337E1,4.4958683E1,5.4285255E1,3.369325E1,4.3951157E1],"split_indices":[3,3,3,3,3,3,3,3,0,1,2,3,3,3,3,3,1,3,3,3,3,3,3,2,2,2,2,2,0,0,0,0,1,3,3,2,2,3,2,2,2,0,2,2,0,3,2,2,3,3,3,3,0,3,3,0,0,0,0,0,0,0,0,0,0,0,0,0,0,0,0,0,0,0,0,0,0,0,0,0,0,0,0,0,0,0,0,0,0,0,0,0,0,0,0,0,0,0,0,0,0,0,0,0,0,0,0],"split_type":[0,0,0,0,0,0,0,0,0,0,0,0,0,0,0,0,0,0,0,0,0,0,0,0,0,0,0,0,0,0,0,0,0,0,0,0,0,0,0,0,0,0,0,0,0,0,0,0,0,0,0,0,0,0,0,0,0,0,0,0,0,0,0,0,0,0,0,0,0,0,0,0,0,0,0,0,0,0,0,0,0,0,0,0,0,0,0,0,0,0,0,0,0,0,0,0,0,0,0,0,0,0,0,0,0,0,0],"sum_hessian":[8.656E3,6.05E3,2.606E3,2.942E3,3.108E3,2.232E3,3.74E2,1.386E3,1.556E3,1.789E3,1.319E3,1.319E3,9.13E2,2.38E2,1.36E2,4.73E2,9.13E2,9.35E2,6.21E2,1.225E3,5.64E2,6.86E2,6.33E2,6.77E2,6.42E2,5.41E2,3.72E2,1.01E2,1.37E2,1E2,3.6E1,3.5E1,4.38E2,3.29E2,5.84E2,4.58E2,4.77E2,3.37E2,2.84E2,7.87E2,4.38E2,1.96E2,3.68E2,4.04E2,2.82E2,2.68E2,3.65E2,4.01E2,2.76E2,2.93E2,3.49E2,2.33E2,3.08E2,1.64E2,2.08E2,5.6E1,4.5E1,1.03E2,3.4E1,6.5E1,3.5E1,1.63E2,2.75E2,2.08E2,1.21E2,3.19E2,2.65E2,1.48E2,3.1E2,2.26E2,2.51E2,1.8E2,1.57E2,1.14E2,1.7E2,4.5E2,3.37E2,3.51E2,8.7E1,6.1E1,1.35E2,1.71E2,1.97E2,1.41E2,2.63E2,7.8E1,2.04E2,1.23E2,1.45E2,2.8E2,8.5E1,1.84E2,2.17E2,9.9E1,1.77E2,1.86E2,1.07E2,1.36E2,2.13E2,1.42E2,9.1E1,2.4E2,6.8E1,8.2E1,8.2E1,1.12E2,9.6E1],"tree_param":{"num_deleted":"0","num_feature":"4","num_nodes":"107","size_leaf_vector":"1"}},{"base_weights":[4.0011537E-1,-1.3410805E2,2.9594043E2,-2.5245439E2,-2.3525826E1,2.3157324E2,6.9577264E2,-3.1718527E2,-1.8595026E2,-7.5996475E1,2.9993147E1,1.6440779E2,3.357423E2,5.7962573E2,8.9331525E2,-3.5859528E2,-2.7713E2,-1.5414375E2,-2.3553812E2,-4.4443172E1,-1.2208087E2,5.7398712E1,-9.518859E0,1.2670942E2,2.0982402E2,2.9505716E2,3.939611E2,5.18325E2,6.555341E2,8.2426245E2,1.05766716E2,-3.890247E2,-3.349689E2,-2.4004776E2,-3.1818814E2,-1.8260013E2,-1.1896144E2,-2.673024E2,-1.9653673E2,-6.892167E1,7.465719E0,-1.7276288E2,-9.094835E1,2.7247028E1,1.1385811E2,-7.3021286E1,2.0978806E1,1.7099484E2,7.021188E1,2.80573E2,1.6838632E2,3.6096854E2,2.5027856E2,4.411785E2,3.3801694E2,5.735821E1,4.107061E1,7.19145E1,5.3736847E1,9.03589E1,7.13896E1,-4.6140087E1,-3.7793373E1,-3.0625992E1,-3.7456535E1,-1.8783657E1,-2.5879347E1,-2.9510798E1,-3.376378E1,-1.5135892E1,-2.1947845E1,-8.233134E0,-1.4887357E1,-2.9121037E1,-2.4753933E1,-1.5818537E1,-2.2560635E1,-1.0796219E0,-8.496693E0,-2.3854501E0,2.7387037E0,-1.9607533E1,-1.4918306E1,-6.6533203E0,-1.3363617E1,6.446747E0,-4.7361404E-2,1.6030413E1,9.31904E0,-1.1207675E1,-5.585063E0,5.071112E0,-9.13476E-1,1.4213597E1,2.0726858E1,2.177405E0,8.728917E0,2.5546478E1,3.2723785E1,2.0243603E1,1.2825332E1,3.1924112E1,3.9454807E1,2.6789988E1,1.6769241E1,4.088232E1,5.0304005E1,3.578822E1,2.4169144E1],"categories":[],"categories_nodes":[],"categories_segments":[],"categories_sizes":[],"default_left":[0,0,0,0,0,0,0,0,0,0,0,0,0,0,0,0,0,0,0,0,0,0,0,0,0,0,0,0,0,0,0,0,0,0,0,0,0,0,0,0,0,0,0,0,0,0,0,0,0,0,0,0,0,0,0,0,0,0,0,0,0,0,0,0,0,0,0,0,0,0,0,0,0,0,0,0,0,0,0,0,0,0,0,0,0,0,0,0,0,0,0,0,0,0,0,0,0,0,0,0,0,0,0,0,0,0,0,0,0],"id":9,"left_children":[1,3,5,7,9,11,13,15,17,19,21,23,25,27,29,31,33,35,37,39,41,43,45,47,49,51,53,55,57,59,-1,61,63,65,67,69,71,73,75,77,79,81,83,85,87,89,91,93,95,97,99,101,103,105,107,-1,-1,-1,-1,-1,-1,-1,-1,-1,-1,-1,-1,-1,-1,-1,-1,-1,-1,-1,-1,-1,-1,-1,-1,-1,-1,-1,-1,-1,-1,-1,-1,-1,-1,-1,-1,-1,-1,-1,-1,-1,-1,-1,-1,-1,-1,-1,-1,-1,-1,-1,-1,-1,-1],"loss_changes":[3.4417782E8,7.786171E7,6.953216E7,1.2313232E7,8.643034E6,1.6274768E7,8.086192E6,2.314016E6,2.20334E6,2.254269E6,1.6508082E6,2.406336E6,2.048704E6,7.72344E5,6.83016E5,3.81576E5,1.05638E6,8.47288E5,6.3255E5,1.1745969E6,9.79916E5,1.529009E6,1.2119542E6,1.937065E6,1.837822E6,1.509328E6,8.36168E5,5.79124E5,3.87764E5,2.39184E5,0E0,7.0452E4,3.49088E5,3.3799E5,5.7472E4,5.17494E5,4.16155E5,7.061E4,2.45257E5,5.8477925E5,1.859635E5,1.021285E5,4.0070525E5,6.067139E5,2.8552025E5,1.2987375E5,3.7919456E5,4.26953E5,2.8265162E5,1.92916E5,5.31575E5,1.78102E5,4.29496E5,1.92648E5,2.4837E5,0E0,0E0,0E0,0E0,0E0,0E0,0E0,0E0,0E0,0E0,0E0,0E0,0E0,0E0,0E0,0E0,0E0,0E0,0E0,0E0,0E0,0E0,0E0,0E0,0E0,0E0,0E0,0E0,0E0,0E0,0E0,0E0,0E0,0E0,0E0,0E0,0E0,0E0,0E0,0E0,0E0,0E0,0E0,0E0,0E0,0E0,0E0,0E0,0E0,0E0,0E0,0E0,0E0,0E0],"parents":[2147483647,0,0,1,1,2,2,3,3,4,4,5,5,6,6,7,7,8,8,9,9,10,10,11,11,12,12,13,13,14,14,15,15,16,16,17,17,18,18,19,19,20,20,21,21,22,22,23,23,24,24,25,25,26,26,27,27,28,28,29,29,31,31,32,32,33,33,34,34,35,35,36,36,37,37,38,38,39,39,40,40,41,41,42,42,43,43,44,44,45,45,46,46,47,47,48,48,49,49,50,50,51,51,52,52,53,53,54,54],"right_children":[2,4,6,8,10,12,14,16,18,20,22,24,26,28,30,32,34,36,38,40,42,44,46,48,50,52,54,56,58,60,-1,62,64,66,68,70,72,74,76,78,80,82,84,86,88,90,92,94,96,98,100,102,104,106,108,-1,-1,-1,-1,-1,-1,-1,-1,-1,-1,-1,-1,-1,-1,-1,-1,-1,-1,-1,-1,-1,-1,-1,-1,-1,-1,-1,-1,-1,-1,-1,-1,-1,-1,-1,-1,-1,-1,-1,-1,-1,-1,-1,-1,-1,-1,-1,-1,-1,-1,-1,-1,-1,-1],"split_conditions":[3.4688933E3,2.8889792E3,4.446972E3,2.586143E3,3.1703904E3,3.8877605E3,5.1448433E3,2.4039119E3,2.8889792E3,3.0642292E3,3.3468442E3,3.6761604E3,4.144136E3,4.7300684E3,5.679982E3,2.2871587E3,2.6001052E3,2.7467087E3,2.78017E3,3.0481006E3,3.0420823E3,3.3148274E3,3.3220493E3,3.5731287E3,3.7048071E3,3.9301287E3,4.258241E3,4.51245E3,4.7300684E3,5.1448433E3,1.05766716E2,2.16535E3,2.6311592E3,2.3759873E3,2.7736704E3,2.6311592E3,2.7091553E3,2.6874897E3,2.9640864E3,2.8100203E3,2.7257654E3,2.9828633E3,3.2486272E3,3.1581133E3,3.2036108E3,3.5028362E3,3.476356E3,3.5538704E3,3.5300383E3,3.7876174E3,3.86441E3,3.970571E3,4.368976E3,4.2917026E3,4.6450913E3,5.735821E1,4.107061E1,7.19145E1,5.3736847E1,9.03589E1,7.13896E1,-4.6140087E1,-3.7793373E1,-3.0625992E1,-3.7456535E1,-1.8783657E1,-2.5879347E1,-2.9510798E1,-3.376378E1,-1.5135892E1,-2.1947845E1,-8.233134E0,-1.4887357E1,-2.9121037E1,-2.4753933E1,-1.5818537E1,-2.2560635E1,-1.0796219E0,-8.496693E0,-2.3854501E0,2.7387037E0,-1.9607533E1,-1.4918306E1,-6.6533203E0,-1.3363617E1,6.446747E0,-4.7361404E-2,1.6030413E1,9.31904E0,-1.1207675E1,-5.585063E0,5.071112E0,-9.13476E-1,1.4213597E1,2.0726858E1,2.177405E0,8.728917E0,2.5546478E1,3.2723785E1,2.0243603E1,1.2825332E1,3.1924112E1,3.9454807E1,2.6789988E1,1.6769241E1,4.088232E1,5.0304005E1,3.578822E1,2.4169144E1],"split_indices":[3,3,3,3,3,3,3,3,1,2,2,3,3,3,3,3,1,3,3,3,3,3,3,2,2,2,2,1,0,0,0,3,0,2,1,2,2,3,2,2,0,3,2,2,2,0,2,3,3,3,2,3,0,3,0,0,0,0,0,0,0,0,0,0,0,0,0,0,0,0,0,0,0,0,0,0,0,0,0,0,0,0,0,0,0,0,0,0,0,0,0,0,0,0,0,0,0,0,0,0,0,0,0,0,0,0,0,0,0],"split_type":[0,0,0,0,0,0,0,0,0,0,0,0,0,0,0,0,0,0,0,0,0,0,0,0,0,0,0,0,0,0,0,0,0,0,0,0,0,0,0,0,0,0,0,0,0,0,0,0,0,0,0,0,0,0,0,0,0,0,0,0,0,0,0,0,0,0,0,0,0,0,0,0,0,0,0,0,0,0,0,0,0,0,0,0,0,0,0,0,0,0,0,0,0,0,0,0,0,0,0,0,0,0,0,0,0,0,0,0,0],"sum_hessian":[8.656E3,5.949E3,2.707E3,2.873E3,3.076E3,2.333E3,3.74E2,1.454E3,1.419E3,1.553E3,1.523E3,1.42E3,9.13E2,2.38E2,1.36E2,7.11E2,7.43E2,8.67E2,5.52E2,9.23E2,6.3E2,8.99E2,6.24E2,7.78E2,6.42E2,5.41E2,3.72E2,1.36E2,1.02E2,1E2,3.6E1,3.04E2,4.07E2,3.94E2,3.49E2,4.77E2,3.9E2,3.01E2,2.51E2,6.27E2,2.96E2,2.38E2,3.92E2,5.87E2,3.12E2,2.02E2,4.22E2,4.35E2,3.43E2,2.35E2,4.07E2,2.16E2,3.25E2,1.98E2,1.74E2,8.7E1,4.9E1,6.3E1,3.9E1,5.4E1,4.6E1,3.5E1,2.69E2,2.41E2,1.66E2,1.07E2,2.87E2,1.67E2,1.82E2,2.61E2,2.16E2,1.77E2,2.13E2,1.3E2,1.71E2,1.11E2,1.4E2,1.36E2,4.91E2,1.15E2,1.81E2,1.16E2,1.22E2,2.51E2,1.41E2,2.5E2,3.37E2,9.4E1,2.18E2,6E1,1.42E2,2.12E2,2.1E2,2.45E2,1.9E2,9E1,2.53E2,1.57E2,7.8E1,2.18E2,1.89E2,1.01E2,1.15E2,2.66E2,5.9E1,1.35E2,6.3E1,1.42E2,3.2E1],"tree_param":{"num_deleted":"0","num_feature":"4","num_nodes":"109","size_leaf_vector":"1"}},{"base_weights":[4.1065815E-1,-1.3089087E2,2.4641023E2,-2.4277025E2,-4.3840202E1,1.8126273E2,5.6654407E2,-3.0511554E2,-1.9660782E2,-9.3580635E1,5.833953E0,1.15641624E2,2.627009E2,4.4343085E2,7.469489E2,-3.4582956E2,-2.8223303E2,-1.6313762E2,-2.3227972E2,-7.200617E1,-1.448562E2,3.1372404E1,-3.3440212E1,1.384099E2,6.3495865E1,2.2178896E2,3.1095926E2,4.700795E2,3.3360464E2,6.644559E2,8.932814E1,-3.9392487E1,-3.3361737E2,-2.5607617E2,-3.2451588E1,-1.9511252E2,-1.2703054E2,-2.6865106E2,-1.9917618E2,-1.0501701E2,-4.4684525E1,-1.7021765E2,-1.1357567E2,2.460698E0,8.008862E1,-7.986347E1,2.1231806E0,1.0138004E2,1.8375755E2,1.1642123E1,9.487827E1,2.7510727E2,1.7573753E2,3.6808704E2,2.6271826E2,4.2070496E2,5.3647804E1,2.5403793E1,3.621894E1,7.0350105E1,4.6451702E1,-2.9378824E1,-3.5532085E1,-2.0016897E1,-2.6893314E1,-1.4640663E1,-2.2283014E1,-1.1448382E1,-2.210918E1,-2.907371E1,-2.5423409E1,-1.5892923E1,-2.3380339E1,-7.4731936E0,-1.6443499E1,-1.4549648E0,-8.227223E0,-1.888465E1,-1.5380101E1,-7.219608E0,-1.4444118E1,3.7274444E0,-2.1595764E0,4.0354857E0,1.0329321E1,-1.1190396E1,-5.8081303E0,2.7208095E0,-2.842816E0,1.5579531E1,7.8510795E0,2.3757643E1,1.5380012E1,3.936922E0,-2.0676537E0,1.1419727E1,4.9821815E0,2.3639778E1,3.0524363E1,1.9548431E1,1.194369E1,2.577666E1,3.7619976E1,2.3710043E1,3.0860449E1,4.692587E1,3.6267303E1],"categories":[],"categories_nodes":[],"categories_segments":[],"categories_sizes":[],"default_left":[0,0,0,0,0,0,0,0,0,0,0,0,0,0,0,0,0,0,0,0,0,0,0,0,0,0,0,0,0,0,0,0,0,0,0,0,0,0,0,0,0,0,0,0,0,0,0,0,0,0,0,0,0,0,0,0,0,0,0,0,0,0,0,0,0,0,0,0,0,0,0,0,0,0,0,0,0,0,0,0,0,0,0,0,0,0,0,0,0,0,0,0,0,0,0,0,0,0,0,0,0,0,0,0,0,0,0],"id":10,"left_children":[1,3,5,7,9,11,13,15,17,19,21,23,25,27,29,31,33,35,37,39,41,43,45,47,49,51,53,55,57,59,-1,-1,61,63,-1,65,67,69,71,73,75,77,79,81,83,85,87,89,91,93,95,97,99,101,103,105,-1,-1,-1,-1,-1,-1,-1,-1,-1,-1,-1,-1,-1,-1,-1,-1,-1,-1,-1,-1,-1,-1,-1,-1,-1,-1,-1,-1,-1,-1,-1,-1,-1,-1,-1,-1,-1,-1,-1,-1,-1,-1,-1,-1,-1,-1,-1,-1,-1,-1,-1],"loss_changes":[2.796544E8,5.496701E7,6.273621E7,7.048688E6,7.847852E6,1.3356496E7,1.0973776E7,8.79688E5,1.659896E6,1.745175E6,1.5958212E6,1.640328E6,2.136368E6,7.35824E5,1.881088E6,8.766E4,6.65652E5,8.26098E5,7.72452E5,1.0045455E6,3.52734E5,1.357567E6,1.03532694E6,1.603496E6,6.888686E5,1.444526E6,1.308804E6,5.70956E5,5.12775E4,7.27108E5,0E0,0E0,1.584E5,2.50218E5,0E0,4.9253E5,3.86564E5,2.925E4,4.68732E5,8.982475E5,6.9428125E5,4.95515E4,2.6161575E5,5.0832728E5,3.2683175E5,1.8333238E5,2.7360397E5,6.52297E5,6.61576E5,1.4508653E5,2.2410825E5,2.5448E5,3.42419E5,1.09772E5,2.5597E5,2.35556E5,0E0,0E0,0E0,0E0,0E0,0E0,0E0,0E0,0E0,0E0,0E0,0E0,0E0,0E0,0E0,0E0,0E0,0E0,0E0,0E0,0E0,0E0,0E0,0E0,0E0,0E0,0E0,0E0,0E0,0E0,0E0,0E0,0E0,0E0,0E0,0E0,0E0,0E0,0E0,0E0,0E0,0E0,0E0,0E0,0E0,0E0,0E0,0E0,0E0,0E0,0E0],"parents":[2147483647,0,0,1,1,2,2,3,3,4,4,5,5,6,6,7,7,8,8,9,9,10,10,11,11,12,12,13,13,14,14,15,15,16,16,17,17,18,18,19,19,20,20,21,21,22,22,23,23,24,24,25,25,26,26,27,27,28,28,29,29,32,32,33,33,35,35,36,36,37,37,38,38,39,39,40,40,41,41,42,42,43,43,44,44,45,45,46,46,47,47,48,48,49,49,50,50,51,51,52,52,53,53,54,54,55,55],"right_children":[2,4,6,8,10,12,14,16,18,20,22,24,26,28,30,32,34,36,38,40,42,44,46,48,50,52,54,56,58,60,-1,-1,62,64,-1,66,68,70,72,74,76,78,80,82,84,86,88,90,92,94,96,98,100,102,104,106,-1,-1,-1,-1,-1,-1,-1,-1,-1,-1,-1,-1,-1,-1,-1,-1,-1,-1,-1,-1,-1,-1,-1,-1,-1,-1,-1,-1,-1,-1,-1,-1,-1,-1,-1,-1,-1,-1,-1,-1,-1,-1,-1,-1,-1,-1,-1,-1,-1,-1,-1],"split_conditions":[3.402693E3,2.810261E3,4.3148125E3,2.4857595E3,3.10082E3,3.7750996E3,4.8718574E3,2.3085835E3,2.7317837E3,3.1376514E3,3.2900322E3,3.7153992E3,3.9951252E3,4.565651E3,5.475122E3,2.1944783E3,2.7173398E3,2.640307E3,2.6723237E3,2.9453096E3,2.9977883E3,3.2546453E3,3.283292E3,3.5538704E3,3.5731287E3,3.8417815E3,4.0839539E3,4.5189497E3,4.446972E3,5.475122E3,8.932814E1,-3.9392487E1,2.2544197E3,2.2977507E3,-3.2451588E1,2.4857595E3,2.7173398E3,2.5664033E3,2.8521477E3,2.8810352E3,2.9766042E3,2.8947566E3,3.1833896E3,3.0878206E3,2.9029414E3,3.5362974E3,3.4359136E3,3.3468442E3,3.4968179E3,3.6857896E3,3.8752427E3,3.8420222E3,4.159302E3,3.3545476E3,4.2035957E3,4.314331E3,5.3647804E1,2.5403793E1,3.621894E1,7.0350105E1,4.6451702E1,-2.9378824E1,-3.5532085E1,-2.0016897E1,-2.6893314E1,-1.4640663E1,-2.2283014E1,-1.1448382E1,-2.210918E1,-2.907371E1,-2.5423409E1,-1.5892923E1,-2.3380339E1,-7.4731936E0,-1.6443499E1,-1.4549648E0,-8.227223E0,-1.888465E1,-1.5380101E1,-7.219608E0,-1.4444118E1,3.7274444E0,-2.1595764E0,4.0354857E0,1.0329321E1,-1.1190396E1,-5.8081303E0,2.7208095E0,-2.842816E0,1.5579531E1,7.8510795E0,2.3757643E1,1.5380012E1,3.936922E0,-2.0676537E0,1.1419727E1,4.9821815E0,2.3639778E1,3.0524363E1,1.9548431E1,1.194369E1,2.577666E1,3.7619976E1,2.3710043E1,3.0860449E1,4.692587E1,3.6267303E1],"split_indices":[3,3,3,3,3,3,3,3,1,1,2,1,3,0,3,3,0,3,3,3,3,3,3,3,3,2,2,3,3,0,0,0,2,2,0,2,2,3,2,2,2,3,2,2,0,0,2,2,2,2,2,3,1,0,3,2,0,0,0,0,0,0,0,0,0,0,0,0,0,0,0,0,0,0,0,0,0,0,0,0,0,0,0,0,0,0,0,0,0,0,0,0,0,0,0,0,0,0,0,0,0,0,0,0,0,0,0],"split_type":[0,0,0,0,0,0,0,0,0,0,0,0,0,0,0,0,0,0,0,0,0,0,0,0,0,0,0,0,0,0,0,0,0,0,0,0,0,0,0,0,0,0,0,0,0,0,0,0,0,0,0,0,0,0,0,0,0,0,0,0,0,0,0,0,0,0,0,0,0,0,0,0,0,0,0,0,0,0,0,0,0,0,0,0,0,0,0,0,0,0,0,0,0,0,0,0,0,0,0,0,0,0,0,0,0,0,0],"sum_hessian":[8.656E3,5.644E3,3.012E3,2.469E3,3.175E3,2.504E3,5.08E2,1.048E3,1.421E3,1.586E3,1.589E3,1.388E3,1.116E3,3.04E2,2.04E2,3.72E2,6.76E2,7.36E2,6.85E2,1.118E3,4.68E2,9.63E2,6.26E2,9.65E2,4.23E2,6.07E2,5.09E2,2.42E2,6.2E1,1.34E2,7E1,6.9E1,3.03E2,4.22E2,2.54E2,3.88E2,3.48E2,3.23E2,3.62E2,5.05E2,6.13E2,2.56E2,2.12E2,6.05E2,3.58E2,2.71E2,3.55E2,5.33E2,4.32E2,1.6E2,2.63E2,2.79E2,3.28E2,2.3E2,2.79E2,1.43E2,9.9E1,1.9E1,4.3E1,1.1E2,2.4E1,1.12E2,1.91E2,8.2E1,3.4E2,1.43E2,2.45E2,3.09E2,3.9E1,1.2E2,2.03E2,1.7E2,1.92E2,3.36E2,1.69E2,3.41E2,2.72E2,1.15E2,1.41E2,9.2E1,1.2E2,2.47E2,3.58E2,1.33E2,2.25E2,1.08E2,1.63E2,1.95E2,1.6E2,1.56E2,3.77E2,1.52E2,2.8E2,8.6E1,7.4E1,1.83E2,8E1,1.26E2,1.53E2,2.41E2,8.7E1,1.8E1,2.12E2,1.83E2,9.6E1,7.4E1,6.9E1],"tree_param":{"num_deleted":"0","num_feature":"4","num_nodes":"107","size_leaf_vector":"1"}},{"base_weights":[3.9853445E-1,-1.08896416E2,2.4054054E2,-2.0278197E2,-1.700344E1,1.8543758E2,5.4982245E2,-2.6453748E2,-1.5476004E2,-5.263366E1,3.321769E1,1.3348906E2,2.6911188E2,4.4057034E2,6.9930444E2,-3.0520285E2,-2.4050313E2,-1.2923926E2,-1.9229489E2,-3.212082E1,-9.001886E1,6.2953968E1,-3.3625457E0,1.0503952E2,1.7492125E2,2.34425E2,3.09031E2,4.7767545E2,3.66416E2,6.179312E2,8.052114E1,-3.454891E1,-2.93368E2,-1.8197516E2,-2.5650543E2,-1.6897437E2,-1.0155674E2,-2.2785773E2,-1.6397635E2,-5.562064E1,1.3447439E1,-1.4099585E2,-6.431397E1,4.0930046E1,9.8913E1,-3.489763E1,2.6865711E1,1.491161E2,6.7825165E1,2.447009E2,1.4083537E2,2.9015866E2,1.9283632E2,3.533678E2,2.6250586E2,4.23108E2,5.701883E1,3.1954748E1,4.1731525E1,6.7899284E1,4.9395996E1,-2.558029E1,-3.1082685E1,-1.909693E1,-1.0563939E1,-2.3757486E1,-2.8440928E1,-1.1406472E1,-1.9251984E1,-6.9975886E0,-1.1761518E1,-2.5258474E1,-2.0984425E1,-1.3332298E1,-1.8463984E1,-6.055672E-1,-7.1234717E0,-2.3504484E0,3.3034298E0,-1.7464483E1,-1.1988429E1,-2.7431564E0,-8.457951E0,7.298099E0,1.2619265E0,4.4799113E0,1.24793005E1,-6.3299723E0,-2.1639004E0,4.200868E0,-3.7773876E0,9.0257845E0,1.6883087E1,9.479617E0,4.538329E0,2.0096298E1,2.6725855E1,1.6748156E1,9.891344E0,1.5868579E1,2.984058E1,2.0967266E1,1.2325007E1,3.1125608E1,3.8760143E1,2.2069286E1,2.947968E1,4.6512985E1,3.5714443E1],"categories":[],"categories_nodes":[],"categories_segments":[],"categories_sizes":[],"default_left":[0,0,0,0,0,0,0,0,0,0,0,0,0,0,0,0,0,0,0,0,0,0,0,0,0,0,0,0,0,0,0,0,0,0,0,0,0,0,0,0,0,0,0,0,0,0,0,0,0,0,0,0,0,0,0,0,0,0,0,0,0,0,0,0,0,0,0,0,0,0,0,0,0,0,0,0,0,0,0,0,0,0,0,0,0,0,0,0,0,0,0,0,0,0,0,0,0,0,0,0,0,0,0,0,0,0,0,0,0],"id":11,"left_children":[1,3,5,7,9,11,13,15,17,19,21,23,25,27,29,31,33,35,37,39,41,43,45,47,49,51,53,55,57,59,-1,-1,61,63,65,67,69,71,73,75,77,79,81,83,85,87,89,91,93,95,97,99,101,103,105,107,-1,-1,-1,-1,-1,-1,-1,-1,-1,-1,-1,-1,-1,-1,-1,-1,-1,-1,-1,-1,-1,-1,-1,-1,-1,-1,-1,-1,-1,-1,-1,-1,-1,-1,-1,-1,-1,-1,-1,-1,-1,-1,-1,-1,-1,-1,-1,-1,-1,-1,-1,-1,-1],"loss_changes":[2.2724048E8,5.132972E7,4.6048736E7,8.68688E6,5.384233E6,9.961616E6,6.371376E6,1.183496E6,1.563372E6,1.3468115E6,1.3588238E6,1.656596E6,1.146064E6,4.8258E5,9.76112E5,1.24636E5,7.14768E5,1.071808E6,6.3638E5,1.2193706E6,8.072845E5,5.4161125E5,5.3571106E5,1.375925E6,1.337932E6,1.045044E6,7.44724E5,5.46264E5,6.7036E4,4.29164E5,0E0,0E0,1.65118E5,1.020365E5,2.68388E5,5.01653E5,2.88953E5,7.795E4,2.13544E5,5.80776E5,2.816E5,1.26822E5,3.0861562E5,3.8834806E5,3.5993125E5,1.0218775E5,2.8251256E5,4.32667E5,2.7412675E5,1.31776E5,4.19087E5,1.70588E5,2.96342E5,1.74892E5,2.07677E5,1.16616E5,0E0,0E0,0E0,0E0,0E0,0E0,0E0,0E0,0E0,0E0,0E0,0E0,0E0,0E0,0E0,0E0,0E0,0E0,0E0,0E0,0E0,0E0,0E0,0E0,0E0,0E0,0E0,0E0,0E0,0E0,0E0,0E0,0E0,0E0,0E0,0E0,0E0,0E0,0E0,0E0,0E0,0E0,0E0,0E0,0E0,0E0,0E0,0E0,0E0,0E0,0E0,0E0,0E0],"parents":[2147483647,0,0,1,1,2,2,3,3,4,4,5,5,6,6,7,7,8,8,9,9,10,10,11,11,12,12,13,13,14,14,15,15,16,16,17,17,18,18,19,19,20,20,21,21,22,22,23,23,24,24,25,25,26,26,27,27,28,28,29,29,32,32,33,33,34,34,35,35,36,36,37,37,38,38,39,39,40,40,41,41,42,42,43,43,44,44,45,45,46,46,47,47,48,48,49,49,50,50,51,51,52,52,53,53,54,54,55,55],"right_children":[2,4,6,8,10,12,14,16,18,20,22,24,26,28,30,32,34,36,38,40,42,44,46,48,50,52,54,56,58,60,-1,-1,62,64,66,68,70,72,74,76,78,80,82,84,86,88,90,92,94,96,98,100,102,104,106,108,-1,-1,-1,-1,-1,-1,-1,-1,-1,-1,-1,-1,-1,-1,-1,-1,-1,-1,-1,-1,-1,-1,-1,-1,-1,-1,-1,-1,-1,-1,-1,-1,-1,-1,-1,-1,-1,-1,-1,-1,-1,-1,-1,-1,-1,-1,-1,-1,-1,-1,-1,-1,-1],"split_conditions":[3.4688933E3,2.9039043E3,4.4103813E3,2.5396826E3,3.221184E3,3.8877605E3,4.9756113E3,2.3372302E3,2.8637026E3,3.1251335E3,3.3552698E3,3.6961409E3,4.105379E3,4.565651E3,5.475122E3,2.2118108E3,2.3543218E3,2.6781013E3,2.7467087E3,3.0714512E3,3.0755435E3,3.3326414E3,3.3752502E3,3.536538E3,3.695178E3,3.9301287E3,4.203355E3,4.6450913E3,4.7300684E3,5.1448433E3,8.052114E1,-3.454891E1,2.2977507E3,2.512721E3,2.8259084E3,2.5197021E3,2.6470474E3,2.6470474E3,2.939532E3,2.8579253E3,2.7317837E3,3.4089521E3,3.2134807E3,3.2036108E3,2.9267734E3,3.283292E3,3.609238E3,3.0355825E3,3.664124E3,3.2192583E3,3.887279E3,3.2021665E3,4.3420146E3,4.1783193E3,4.2587227E3,4.410622E3,5.701883E1,3.1954748E1,4.1731525E1,6.7899284E1,4.9395996E1,-2.558029E1,-3.1082685E1,-1.909693E1,-1.0563939E1,-2.3757486E1,-2.8440928E1,-1.1406472E1,-1.9251984E1,-6.9975886E0,-1.1761518E1,-2.5258474E1,-2.0984425E1,-1.3332298E1,-1.8463984E1,-6.055672E-1,-7.1234717E0,-2.3504484E0,3.3034298E0,-1.7464483E1,-1.1988429E1,-2.7431564E0,-8.457951E0,7.298099E0,1.2619265E0,4.4799113E0,1.24793005E1,-6.3299723E0,-2.1639004E0,4.200868E0,-3.7773876E0,9.0257845E0,1.6883087E1,9.479617E0,4.538329E0,2.0096298E1,2.6725855E1,1.6748156E1,9.891344E0,1.5868579E1,2.984058E1,2.0967266E1,1.2325007E1,3.1125608E1,3.8760143E1,2.2069286E1,2.947968E1,4.6512985E1,3.5714443E1],"split_indices":[3,3,3,3,3,3,3,3,1,2,2,3,3,1,3,3,1,3,3,3,3,3,3,2,2,2,2,3,3,0,0,0,1,3,0,2,2,3,2,2,0,0,2,2,0,3,2,0,2,0,2,0,0,3,3,2,0,0,0,0,0,0,0,0,0,0,0,0,0,0,0,0,0,0,0,0,0,0,0,0,0,0,0,0,0,0,0,0,0,0,0,0,0,0,0,0,0,0,0,0,0,0,0,0,0,0,0,0,0],"split_type":[0,0,0,0,0,0,0,0,0,0,0,0,0,0,0,0,0,0,0,0,0,0,0,0,0,0,0,0,0,0,0,0,0,0,0,0,0,0,0,0,0,0,0,0,0,0,0,0,0,0,0,0,0,0,0,0,0,0,0,0,0,0,0,0,0,0,0,0,0,0,0,0,0,0,0,0,0,0,0,0,0,0,0,0,0,0,0,0,0,0,0,0,0,0,0,0,0,0,0,0,0,0,0,0,0,0,0,0,0],"sum_hessian":[8.656E3,5.949E3,2.707E3,2.942E3,3.007E3,2.299E3,4.08E2,1.285E3,1.657E3,1.759E3,1.248E3,1.42E3,8.79E2,2.38E2,1.7E2,4.73E2,8.12E2,9.89E2,6.68E2,1.137E3,6.22E2,6.88E2,5.6E2,8.44E2,5.76E2,4.74E2,4.05E2,1.55E2,8.3E1,1E2,7E1,1.01E2,3.72E2,1.77E2,6.35E2,4.04E2,5.85E2,2.93E2,3.75E2,7.5E2,3.87E2,2.07E2,4.15E2,4.28E2,2.6E2,2.74E2,2.86E2,3.85E2,4.59E2,1.87E2,3.89E2,2E2,2.74E2,2.04E2,2.01E2,1.01E2,5.4E1,4.7E1,3.6E1,6.4E1,3.6E1,1.23E2,2.49E2,1.57E2,2E1,3.84E2,2.51E2,1.23E2,2.81E2,1.99E2,3.86E2,1.18E2,1.75E2,1.54E2,2.21E2,1.8E2,5.7E2,1.34E2,2.53E2,7.7E1,1.3E2,1.48E2,2.67E2,2E2,2.28E2,8.5E1,1.75E2,8.6E1,1.88E2,2.32E2,5.4E1,9.8E1,2.87E2,2.07E2,2.52E2,6.7E1,1.2E2,2.36E2,1.53E2,1.3E1,1.87E2,2.19E2,5.5E1,9.6E1,1.08E2,9.1E1,1.1E2,5.8E1,4.3E1],"tree_param":{"num_deleted":"0","num_feature":"4","num_nodes":"109","size_leaf_vector":"1"}},{"base_weights":[4.0419728E-1,-9.545554E1,2.2290013E2,-1.8089006E2,-1.1111619E1,1.7710208E2,5.277445E2,-2.3209795E2,-1.3276611E2,-4.789088E1,2.9244371E1,1.27657875E2,2.5465538E2,4.5414783E2,6.92679E2,-2.636761E2,-2.0156606E2,-1.0819056E2,-1.6904346E2,-2.71049E1,-8.7849396E1,6.450667E1,8.562695E0,9.1502594E1,1.5314777E2,2.2978273E2,3.092988E2,4.0288837E2,5.17421E2,6.28872E2,7.895005E1,-2.9891324E2,-2.5215858E2,-1.3943379E2,-2.165023E2,-1.3315846E2,-8.2166405E1,-1.9646742E2,-1.4177832E2,-5.0289627E1,3.7996228E0,-1.304211E2,-6.684617E1,3.9295345E1,1.0923931E2,-1.9911963E1,3.739324E1,1.462456E2,5.921752E1,1.9804184E2,1.1511868E2,2.6842584E2,1.8477417E2,3.576687E2,2.5794333E2,4.623793E1,3.3472043E2,5.4467304E1,3.5847115E1,6.633569E1,3.9300705E1,-3.446549E1,-2.8450132E1,-2.2807394E1,-2.778797E1,-1.5165842E1,-4.3398466E0,-1.9778975E1,-2.4229307E1,-8.636128E0,-1.5069434E1,-7.616947E0,-2.0304695E1,-2.2265285E1,-1.8681686E1,-1.1095845E1,-1.6261053E1,3.0437691E0,-6.135555E0,3.1258037E0,-1.9209454E0,-1.649214E1,-1.0728072E1,-4.701203E0,-1.0307494E1,9.638063E0,2.9744928E0,5.906179E0,1.3795688E1,-3.4383103E-1,-4.845245E0,5.2211986E0,-2.6968954E0,7.790629E0,1.757331E1,7.198343E0,-2.9177284E-1,1.7907593E1,2.3528315E1,7.6834235E0,1.39923725E1,2.2698912E1,3.0077463E1,1.2586586E1,2.033682E1,3.2121468E1,3.8400726E1,2.7476847E1,1.722489E1,3.6179516E1,2.3380682E1],"categories":[],"categories_nodes":[],"categories_segments":[],"categories_sizes":[],"default_left":[0,0,0,0,0,0,0,0,0,0,0,0,0,0,0,0,0,0,0,0,0,0,0,0,0,0,0,0,0,0,0,0,0,0,0,0,0,0,0,0,0,0,0,0,0,0,0,0,0,0,0,0,0,0,0,0,0,0,0,0,0,0,0,0,0,0,0,0,0,0,0,0,0,0,0,0,0,0,0,0,0,0,0,0,0,0,0,0,0,0,0,0,0,0,0,0,0,0,0,0,0,0,0,0,0,0,0,0,0,0,0],"id":12,"left_children":[1,3,5,7,9,11,13,15,17,19,21,23,25,27,29,31,33,35,37,39,41,43,45,47,49,51,53,55,57,59,-1,61,63,65,67,69,71,73,75,77,79,81,83,85,87,89,91,93,95,97,99,101,103,105,107,-1,109,-1,-1,-1,-1,-1,-1,-1,-1,-1,-1,-1,-1,-1,-1,-1,-1,-1,-1,-1,-1,-1,-1,-1,-1,-1,-1,-1,-1,-1,-1,-1,-1,-1,-1,-1,-1,-1,-1,-1,-1,-1,-1,-1,-1,-1,-1,-1,-1,-1,-1,-1,-1,-1,-1],"loss_changes":[1.8466126E8,4.3600784E7,3.6303584E7,7.376944E6,4.522467E6,8.664272E6,3.812552E6,1.34968E6,1.365374E6,1.3215582E6,1.0590965E6,1.26424E6,1.12768E6,5.63456E5,1.39828E5,2.13584E5,6.60264E5,5.92043E5,4.3947E5,7.5252956E5,4.7859E5,6.013195E5,7.5354644E5,1.009352E6,1.363512E6,1.011358E6,5.85892E5,3.96764E5,2.50914E5,2.84262E5,0E0,1.4014E4,2.73004E5,1.6599575E5,2.40678E5,3.743235E5,3.15819E5,3.6489E4,1.85486E5,5.3786075E5,2.8553897E5,1.2521175E5,2.5886812E5,1.8522319E5,2.6996025E5,2.1705008E5,4.3632588E5,4.155375E5,2.8893938E5,2.19909E5,4.08993E5,3.68706E5,2.86576E5,9.152E3,1.48759E5,0E0,9.84675E4,0E0,0E0,0E0,0E0,0E0,0E0,0E0,0E0,0E0,0E0,0E0,0E0,0E0,0E0,0E0,0E0,0E0,0E0,0E0,0E0,0E0,0E0,0E0,0E0,0E0,0E0,0E0,0E0,0E0,0E0,0E0,0E0,0E0,0E0,0E0,0E0,0E0,0E0,0E0,0E0,0E0,0E0,0E0,0E0,0E0,0E0,0E0,0E0,0E0,0E0,0E0,0E0,0E0,0E0],"parents":[2147483647,0,0,1,1,2,2,3,3,4,4,5,5,6,6,7,7,8,8,9,9,10,10,11,11,12,12,13,13,14,14,15,15,16,16,17,17,18,18,19,19,20,20,21,21,22,22,23,23,24,24,25,25,26,26,27,27,28,28,29,29,31,31,32,32,33,33,34,34,35,35,36,36,37,37,38,38,39,39,40,40,41,41,42,42,43,43,44,44,45,45,46,46,47,47,48,48,49,49,50,50,51,51,52,52,53,53,54,54,56,56],"right_children":[2,4,6,8,10,12,14,16,18,20,22,24,26,28,30,32,34,36,38,40,42,44,46,48,50,52,54,56,58,60,-1,62,64,66,68,70,72,74,76,78,80,82,84,86,88,90,92,94,96,98,100,102,104,106,108,-1,110,-1,-1,-1,-1,-1,-1,-1,-1,-1,-1,-1,-1,-1,-1,-1,-1,-1,-1,-1,-1,-1,-1,-1,-1,-1,-1,-1,-1,-1,-1,-1,-1,-1,-1,-1,-1,-1,-1,-1,-1,-1,-1,-1,-1,-1,-1,-1,-1,-1,-1,-1,-1,-1,-1],"split_conditions":[3.489596E3,2.9176257E3,4.5189497E3,2.586143E3,3.2036108E3,3.9188145E3,5.33213E3,2.4039119E3,2.8810352E3,3.1251335E3,3.2727E3,3.6395696E3,4.232965E3,4.8718574E3,5.679982E3,2.2404573E3,2.4039119E3,2.7467087E3,2.78017E3,3.0481006E3,3.0642292E3,3.3148274E3,3.3752502E3,3.483578E3,3.7486196E3,4.0478447E3,4.314331E3,4.4103813E3,5.475122E3,5.679982E3,7.895005E1,2.16535E3,2.548108E3,2.5331829E3,2.7089146E3,2.548108E3,2.8759797E3,2.6470474E3,2.9640864E3,2.78017E3,3.0141577E3,3.4089521E3,3.304476E3,3.0543594E3,2.8810352E3,3.4359136E3,3.609238E3,3.0240276E3,3.7630632E3,3.7876174E3,3.7750996E3,3.9951252E3,4.012217E3,4.3148125E3,4.7300684E3,4.623793E1,5.1448433E3,5.4467304E1,3.5847115E1,6.633569E1,3.9300705E1,-3.446549E1,-2.8450132E1,-2.2807394E1,-2.778797E1,-1.5165842E1,-4.3398466E0,-1.9778975E1,-2.4229307E1,-8.636128E0,-1.5069434E1,-7.616947E0,-2.0304695E1,-2.2265285E1,-1.8681686E1,-1.1095845E1,-1.6261053E1,3.0437691E0,-6.135555E0,3.1258037E0,-1.9209454E0,-1.649214E1,-1.0728072E1,-4.701203E0,-1.0307494E1,9.638063E0,2.9744928E0,5.906179E0,1.3795688E1,-3.4383103E-1,-4.845245E0,5.2211986E0,-2.6968954E0,7.790629E0,1.757331E1,7.198343E0,-2.9177284E-1,1.7907593E1,2.3528315E1,7.6834235E0,1.39923725E1,2.2698912E1,3.0077463E1,1.2586586E1,2.033682E1,3.2121468E1,3.8400726E1,2.7476847E1,1.722489E1,3.6179516E1,2.3380682E1],"split_indices":[3,3,3,3,3,3,3,3,1,2,2,3,3,3,3,3,2,3,3,3,3,3,3,2,2,2,2,1,1,0,0,3,0,3,1,2,2,3,2,2,2,0,2,2,0,2,2,0,2,3,3,3,3,3,0,0,0,0,0,0,0,0,0,0,0,0,0,0,0,0,0,0,0,0,0,0,0,0,0,0,0,0,0,0,0,0,0,0,0,0,0,0,0,0,0,0,0,0,0,0,0,0,0,0,0,0,0,0,0,0,0],"split_type":[0,0,0,0,0,0,0,0,0,0,0,0,0,0,0,0,0,0,0,0,0,0,0,0,0,0,0,0,0,0,0,0,0,0,0,0,0,0,0,0,0,0,0,0,0,0,0,0,0,0,0,0,0,0,0,0,0,0,0,0,0,0,0,0,0,0,0,0,0,0,0,0,0,0,0,0,0,0,0,0,0,0,0,0,0,0,0,0,0,0,0,0,0,0,0,0,0,0,0,0,0,0,0,0,0,0,0,0,0,0,0],"sum_hessian":[8.656E3,6.05E3,2.606E3,3.005E3,3.045E3,2.267E3,3.39E2,1.454E3,1.551E3,1.593E3,1.452E3,1.386E3,8.81E2,2.37E2,1.02E2,7.11E2,7.43E2,9.27E2,6.24E2,1.049E3,5.44E2,5.36E2,9.16E2,5.75E2,8.11E2,6.09E2,2.72E2,1.35E2,1.02E2,6.6E1,3.6E1,1.69E2,5.42E2,1.46E2,5.97E2,4.71E2,4.56E2,3.08E2,3.16E2,5.99E2,4.5E2,1.78E2,3.66E2,3.44E2,1.92E2,4.61E2,4.55E2,2.12E2,3.63E2,3.7E2,4.41E2,3.25E2,2.84E2,1.37E2,1.35E2,6.9E1,6.6E1,8.5E1,1.7E1,5.6E1,1E1,3.5E1,1.34E2,2.85E2,2.57E2,1.29E2,1.7E1,3.51E2,2.46E2,1.3E2,3.41E2,4.36E2,2E1,7.7E1,2.31E2,1.3E2,1.86E2,7.2E1,5.27E2,2.05E2,2.45E2,6.9E1,1.09E2,2.38E2,1.28E2,4.8E1,2.96E2,7.1E1,1.21E2,2.93E2,1.68E2,3.7E2,8.5E1,6.5E1,1.47E2,3.01E2,6.2E1,2.49E2,1.21E2,1.75E2,2.66E2,1.46E2,1.79E2,7E1,2.14E2,6.3E1,7.4E1,1.11E2,2.4E1,5E1,1.6E1],"tree_param":{"num_deleted":"0","num_feature":"4","num_nodes":"111","size_leaf_vector":"1"}},{"base_weights":[4.059971E-1,-9.329574E1,1.8539517E2,-1.798865E2,-3.1062286E1,1.3838136E2,4.2621045E2,-2.29793E2,-1.4920607E2,-6.813238E1,8.452553E0,9.298943E1,2.01669E2,3.5646872E2,5.9567206E2,-2.5417989E2,-2.1255437E2,-1.2250154E2,-1.7486824E2,-4.3520046E1,-9.344636E1,3.2998096E1,-1.559382E1,6.829721E1,1.2284449E2,1.680867E2,2.3055934E2,3.119581E2,4.1903882E2,5.469085E2,7.126841E1,-3.111467E1,-2.473604E2,-1.7950311E2,-2.3363531E2,-1.4882465E2,-9.812157E1,-2.0175099E2,-1.5068678E2,-7.551717E1,-1.1569453E1,-1.327478E2,-6.89855E1,1.0916994E1,7.367631E1,-5.9257816E1,6.2267737E0,1.2829628E2,4.553161E1,1.8334885E2,9.525145E1,2.1992361E2,1.313857E2,2.7200122E2,1.9910544E2,3.5857727E2,2.608208E2,4.7266495E1,3.392231E1,5.697235E1,3.4864376E1,-2.1669643E1,-2.6571928E1,-8.336608E0,-1.8527744E1,-2.1663168E1,-2.522554E1,-1.1357844E1,-1.7279507E1,-8.890186E0,-2.0791786E1,-1.847882E1,-2.142051E1,-1.2008571E1,-1.7662342E1,-3.7654939E0,-9.571109E0,-8.523954E0,9.6756235E-2,-1.7481184E1,-1.2464653E1,-4.7989573E0,-9.961335E0,4.5757484E0,-4.5122752E-1,3.722101E0,1.0246416E1,-9.47332E0,-4.187097E0,2.0229506E0,-3.6657338E0,7.6750712E0,1.6727964E1,6.3282285E0,1.2894646E0,1.3648238E1,2.1410263E1,1.1591315E1,6.040988E0,1.2834279E1,2.3325356E1,1.4651305E1,8.564956E0,1.7771484E1,2.791014E1,1.7876032E1,2.4909285E1,3.2675125E1,4.044178E1,2.8365244E1,1.8097973E1],"categories":[],"categories_nodes":[],"categories_segments":[],"categories_sizes":[],"default_left":[0,0,0,0,0,0,0,0,0,0,0,0,0,0,0,0,0,0,0,0,0,0,0,0,0,0,0,0,0,0,0,0,0,0,0,0,0,0,0,0,0,0,0,0,0,0,0,0,0,0,0,0,0,0,0,0,0,0,0,0,0,0,0,0,0,0,0,0,0,0,0,0,0,0,0,0,0,0,0,0,0,0,0,0,0,0,0,0,0,0,0,0,0,0,0,0,0,0,0,0,0,0,0,0,0,0,0,0,0,0,0],"id":13,"left_children":[1,3,5,7,9,11,13,15,17,19,21,23,25,27,29,31,33,35,37,39,41,43,45,47,49,51,53,55,57,59,-1,-1,61,63,65,67,69,71,73,75,77,79,81,83,85,87,89,91,93,95,97,99,101,103,105,107,109,-1,-1,-1,-1,-1,-1,-1,-1,-1,-1,-1,-1,-1,-1,-1,-1,-1,-1,-1,-1,-1,-1,-1,-1,-1,-1,-1,-1,-1,-1,-1,-1,-1,-1,-1,-1,-1,-1,-1,-1,-1,-1,-1,-1,-1,-1,-1,-1,-1,-1,-1,-1,-1,-1],"loss_changes":[1.5007606E8,3.0964076E7,3.2898328E7,3.64508E6,4.900395E6,6.982136E6,5.401464E6,3.29796E5,1.000352E6,1.0712935E6,9.566892E5,1.039155E6,9.4794E5,8.134E5,3.9194E5,6.7938E4,3.35006E5,4.56445E5,4.62348E5,8.9570725E5,8.079875E5,7.1956794E5,7.806912E5,1.059572E6,1.054354E6,8.72875E5,6.5495E5,3.8804E5,4.30332E5,2.58232E5,0E0,0E0,1.327E5,1.039065E5,4.8884E4,2.769225E5,3.7023475E5,3.5625E4,2.98647E5,3.3128525E5,4.064678E5,8.89615E4,3.3346925E5,2.8027694E5,2.9213662E5,1.6442119E5,3.2921212E5,4.17177E5,3.2766312E5,2.59043E5,3.119075E5,2.08112E5,1.81174E5,1.05712E5,2.73794E5,1.8125E4,1.30955E5,0E0,0E0,0E0,0E0,0E0,0E0,0E0,0E0,0E0,0E0,0E0,0E0,0E0,0E0,0E0,0E0,0E0,0E0,0E0,0E0,0E0,0E0,0E0,0E0,0E0,0E0,0E0,0E0,0E0,0E0,0E0,0E0,0E0,0E0,0E0,0E0,0E0,0E0,0E0,0E0,0E0,0E0,0E0,0E0,0E0,0E0,0E0,0E0,0E0,0E0,0E0,0E0,0E0,0E0],"parents":[2147483647,0,0,1,1,2,2,3,3,4,4,5,5,6,6,7,7,8,8,9,9,10,10,11,11,12,12,13,13,14,14,15,15,16,16,17,17,18,18,19,19,20,20,21,21,22,22,23,23,24,24,25,25,26,26,27,27,28,28,29,29,32,32,33,33,34,34,35,35,36,36,37,37,38,38,39,39,40,40,41,41,42,42,43,43,44,44,45,45,46,46,47,47,48,48,49,49,50,50,51,51,52,52,53,53,54,54,55,55,56,56],"right_children":[2,4,6,8,10,12,14,16,18,20,22,24,26,28,30,32,34,36,38,40,42,44,46,48,50,52,54,56,58,60,-1,-1,62,64,66,68,70,72,74,76,78,80,82,84,86,88,90,92,94,96,98,100,102,104,106,108,110,-1,-1,-1,-1,-1,-1,-1,-1,-1,-1,-1,-1,-1,-1,-1,-1,-1,-1,-1,-1,-1,-1,-1,-1,-1,-1,-1,-1,-1,-1,-1,-1,-1,-1,-1,-1,-1,-1,-1,-1,-1,-1,-1,-1,-1,-1,-1,-1,-1,-1,-1,-1,-1,-1],"split_conditions":[3.4236365E3,2.7967803E3,4.3420146E3,2.451576E3,3.1138193E3,3.8213196E3,5.1448433E3,2.3085835E3,2.6947114E3,2.9766042E3,3.2597007E3,3.6097195E3,3.9951252E3,4.6450913E3,5.679982E3,2.16535E3,2.3856165E3,2.593365E3,2.6470474E3,2.9176257E3,2.9828633E3,3.2609043E3,3.2676445E3,3.4024524E3,3.6027383E3,3.8417815E3,4.0839539E3,4.410622E3,4.7300684E3,5.679982E3,7.126841E1,-3.111467E1,2.2871587E3,2.1944783E3,2.7878733E3,2.451576E3,2.7091553E3,2.8381855E3,2.82639E3,2.7613933E3,2.4200405E3,3.0240276E3,3.1374106E3,3.0543594E3,2.9029414E3,3.4089521E3,3.483578E3,3.0355825E3,3.6188672E3,3.1949448E3,3.8319116E3,3.1949448E3,4.159302E3,3.3545476E3,4.2587227E3,4.446972E3,4.7300684E3,4.7266495E1,3.392231E1,5.697235E1,3.4864376E1,-2.1669643E1,-2.6571928E1,-8.336608E0,-1.8527744E1,-2.1663168E1,-2.522554E1,-1.1357844E1,-1.7279507E1,-8.890186E0,-2.0791786E1,-1.847882E1,-2.142051E1,-1.2008571E1,-1.7662342E1,-3.7654939E0,-9.571109E0,-8.523954E0,9.6756235E-2,-1.7481184E1,-1.2464653E1,-4.7989573E0,-9.961335E0,4.5757484E0,-4.5122752E-1,3.722101E0,1.0246416E1,-9.47332E0,-4.187097E0,2.0229506E0,-3.6657338E0,7.6750712E0,1.6727964E1,6.3282285E0,1.2894646E0,1.3648238E1,2.1410263E1,1.1591315E1,6.040988E0,1.2834279E1,2.3325356E1,1.4651305E1,8.564956E0,1.7771484E1,2.791014E1,1.7876032E1,2.4909285E1,3.2675125E1,4.044178E1,2.8365244E1,1.8097973E1],"split_indices":[3,3,3,3,3,3,3,3,1,2,2,3,3,3,3,3,2,3,3,3,3,3,3,2,2,2,2,2,1,0,0,0,1,1,0,2,2,1,2,2,0,0,2,2,0,0,2,0,2,0,2,0,1,0,3,3,0,0,0,0,0,0,0,0,0,0,0,0,0,0,0,0,0,0,0,0,0,0,0,0,0,0,0,0,0,0,0,0,0,0,0,0,0,0,0,0,0,0,0,0,0,0,0,0,0,0,0,0,0,0,0],"split_type":[0,0,0,0,0,0,0,0,0,0,0,0,0,0,0,0,0,0,0,0,0,0,0,0,0,0,0,0,0,0,0,0,0,0,0,0,0,0,0,0,0,0,0,0,0,0,0,0,0,0,0,0,0,0,0,0,0,0,0,0,0,0,0,0,0,0,0,0,0,0,0,0,0,0,0,0,0,0,0,0,0,0,0,0,0,0,0,0,0,0,0,0,0,0,0,0,0,0,0,0,0,0,0,0,0,0,0,0,0,0,0],"sum_hessian":[8.656E3,5.746E3,2.91E3,2.402E3,3.344E3,2.436E3,4.74E2,9.12E2,1.49E3,1.725E3,1.619E3,1.42E3,1.016E3,3.38E2,1.36E2,3.72E2,5.4E2,7.33E2,7.57E2,8.76E2,8.49E2,8.01E2,8.18E2,7.79E2,6.41E2,4.73E2,5.43E2,2.01E2,1.37E2,1E2,3.6E1,3.5E1,3.37E2,2.14E2,3.26E2,3.5E2,3.83E2,3.55E2,4.02E2,4.37E2,4.39E2,3.24E2,5.25E2,5.2E2,2.81E2,2.72E2,5.46E2,2.13E2,5.66E2,1.99E2,4.42E2,1.94E2,2.79E2,2.31E2,3.12E2,1.02E2,9.9E1,7.9E1,5.8E1,8.8E1,1.2E1,1.31E2,2.06E2,1.3E1,2.01E2,1.77E2,1.49E2,1.44E2,2.06E2,3.55E2,2.8E1,1.57E2,1.98E2,1.87E2,2.15E2,1.53E2,2.84E2,6.3E1,3.76E2,4.9E1,2.75E2,3.13E2,2.12E2,1.59E2,3.61E2,1.25E2,1.56E2,8.8E1,1.84E2,4.12E2,1.34E2,9.3E1,1.2E2,3.66E2,2E2,8.1E1,1.18E2,2.76E2,1.66E2,2.6E1,1.68E2,2.08E2,7.1E1,1.8E1,2.13E2,2.25E2,8.7E1,6.5E1,3.7E1,7.5E1,2.4E1],"tree_param":{"num_deleted":"0","num_feature":"4","num_nodes":"111","size_leaf_vector":"1"}},{"base_weights":[3.94483E-1,-7.7537346E1,1.8127867E2,-1.515823E2,-1.3377664E1,1.4173021E2,4.162932E2,-1.9843076E2,-1.1893997E2,-4.767666E1,1.95616E1,1.0377905E2,2.0370956E2,3.5831052E2,5.6593384E2,-2.2604828E2,-1.8110939E2,-9.701089E1,-1.4096411E2,-2.7171217E1,-7.951202E1,5.0397392E1,4.746245E0,8.140801E1,1.3222447E2,2.1288358E2,1.1896273E2,3.1807077E2,4.2163754E2,5.1473944E2,6.433417E1,-2.8089624E1,-2.2061475E2,-1.1093601E2,-1.909403E2,-1.2480525E2,-7.122984E1,-1.7122154E2,-1.2085359E2,-4.584614E1,-4.2465478E-1,-1.12981186E2,-6.091451E1,3.0633831E1,9.71898E1,-2.647858E1,2.7987242E1,1.2880199E2,5.8766617E1,1.6879185E2,9.194827E1,1.861436E2,2.4854007E2,8.424661E1,1.6387503E2,3.6242535E1,2.643135E2,4.6259655E1,3.288431E1,5.4221252E1,3.255843E1,-1.9484426E1,-2.3664917E1,-1.4336403E1,-5.5881577E0,-1.7508924E1,-2.1334112E1,-7.2367644E0,-1.4067705E1,-1.1957702E1,-5.5870395E0,-1.5678263E1,-1.8623259E1,-9.265982E0,-1.4662134E1,2.2094054E0,-5.3882427E0,-3.798185E0,1.8285202E0,-1.5259959E1,-9.957419E0,-5.0521364E0,-1.0276849E1,-2.746649E-1,4.8072424E0,2.5364673E0,1.1800556E1,-8.2714075E-1,-4.6914773E0,4.7243323E0,-4.898056E-1,3.6255214E0,1.4514247E1,7.2469683E0,2.5836627E0,2.0207605E1,1.4313372E1,1.1056427E1,6.395556E0,2.3177248E1,1.6101124E1,2.7600504E1,2.1866346E1,3.7869508E0,9.35033E0,2.0795458E1,1.2637195E1,2.8654846E1,1.821695E1],"categories":[],"categories_nodes":[],"categories_segments":[],"categories_sizes":[],"default_left":[0,0,0,0,0,0,0,0,0,0,0,0,0,0,0,0,0,0,0,0,0,0,0,0,0,0,0,0,0,0,0,0,0,0,0,0,0,0,0,0,0,0,0,0,0,0,0,0,0,0,0,0,0,0,0,0,0,0,0,0,0,0,0,0,0,0,0,0,0,0,0,0,0,0,0,0,0,0,0,0,0,0,0,0,0,0,0,0,0,0,0,0,0,0,0,0,0,0,0,0,0,0,0,0,0,0,0,0,0],"id":14,"left_children":[1,3,5,7,9,11,13,15,17,19,21,23,25,27,29,31,33,35,37,39,41,43,45,47,49,51,53,55,57,59,-1,-1,61,63,65,67,69,71,73,75,77,79,81,83,85,87,89,91,93,95,97,99,101,103,105,-1,107,-1,-1,-1,-1,-1,-1,-1,-1,-1,-1,-1,-1,-1,-1,-1,-1,-1,-1,-1,-1,-1,-1,-1,-1,-1,-1,-1,-1,-1,-1,-1,-1,-1,-1,-1,-1,-1,-1,-1,-1,-1,-1,-1,-1,-1,-1,-1,-1,-1,-1,-1,-1],"loss_changes":[1.2204864E8,2.874446E7,2.4171656E7,4.272044E6,3.6648205E6,5.2313E6,3.050936E6,5.10148E5,7.8709E5,1.03513575E6,7.5583625E5,8.71858E5,6.33188E5,5.61564E5,7.702E4,6.9158E4,4.70694E5,5.88728E5,4.81313E5,4.8348694E5,3.802775E5,4.93632E5,8.1279494E5,8.28349E5,8.81413E5,6.81224E5,1.18724375E5,3.11936E5,2.39356E5,1.71642E5,0E0,0E0,1.21242E5,1.5266612E5,1.84216E5,3.227305E5,3.1634425E5,4.1677E4,3.489335E5,3.12403E5,2.8106775E5,1.02192E5,1.6967575E5,2.2075112E5,2.34727E5,1.7746872E5,4.067728E5,3.743145E5,2.3683438E5,2.42652E5,1.450935E5,4.67258E5,2.0551E5,1.7924031E4,3.3232688E4,0E0,9.57435E4,0E0,0E0,0E0,0E0,0E0,0E0,0E0,0E0,0E0,0E0,0E0,0E0,0E0,0E0,0E0,0E0,0E0,0E0,0E0,0E0,0E0,0E0,0E0,0E0,0E0,0E0,0E0,0E0,0E0,0E0,0E0,0E0,0E0,0E0,0E0,0E0,0E0,0E0,0E0,0E0,0E0,0E0,0E0,0E0,0E0,0E0,0E0,0E0,0E0,0E0,0E0,0E0],"parents":[2147483647,0,0,1,1,2,2,3,3,4,4,5,5,6,6,7,7,8,8,9,9,10,10,11,11,12,12,13,13,14,14,15,15,16,16,17,17,18,18,19,19,20,20,21,21,22,22,23,23,24,24,25,25,26,26,27,27,28,28,29,29,32,32,33,33,34,34,35,35,36,36,37,37,38,38,39,39,40,40,41,41,42,42,43,43,44,44,45,45,46,46,47,47,48,48,49,49,50,50,51,51,52,52,53,53,54,54,56,56],"right_children":[2,4,6,8,10,12,14,16,18,20,22,24,26,28,30,32,34,36,38,40,42,44,46,48,50,52,54,56,58,60,-1,-1,62,64,66,68,70,72,74,76,78,80,82,84,86,88,90,92,94,96,98,100,102,104,106,-1,108,-1,-1,-1,-1,-1,-1,-1,-1,-1,-1,-1,-1,-1,-1,-1,-1,-1,-1,-1,-1,-1,-1,-1,-1,-1,-1,-1,-1,-1,-1,-1,-1,-1,-1,-1,-1,-1,-1,-1,-1,-1,-1,-1,-1,-1,-1,-1,-1,-1,-1,-1,-1],"split_conditions":[3.489596E3,2.8762205E3,4.446972E3,2.512721E3,3.1648538E3,3.9188145E3,5.33213E3,2.3297676E3,2.7613933E3,3.0642292E3,3.234424E3,3.7050479E3,4.51245E3,4.8718574E3,5.679982E3,2.16535E3,2.318694E3,2.6619724E3,2.7033777E3,3.0192131E3,3.0249905E3,3.3042354E3,3.3326414E3,3.4891145E3,3.8097646E3,4.144136E3,4.2587227E3,4.4103813E3,5.1448433E3,5.679982E3,6.433417E1,-2.8089624E1,2.2977507E3,2.4133003E3,2.7734297E3,2.4580757E3,2.3661174E3,2.9575867E3,2.8947566E3,2.7317837E3,2.6617317E3,3.2777551E3,3.304476E3,2.8384263E3,2.6947114E3,3.3552698E3,3.483578E3,2.9267734E3,3.7373054E3,3.6511248E3,4.0478447E3,3.8983525E3,4.203355E3,3.970571E3,4.6450913E3,3.6242535E1,5.1448433E3,4.6259655E1,3.288431E1,5.4221252E1,3.255843E1,-1.9484426E1,-2.3664917E1,-1.4336403E1,-5.5881577E0,-1.7508924E1,-2.1334112E1,-7.2367644E0,-1.4067705E1,-1.1957702E1,-5.5870395E0,-1.5678263E1,-1.8623259E1,-9.265982E0,-1.4662134E1,2.2094054E0,-5.3882427E0,-3.798185E0,1.8285202E0,-1.5259959E1,-9.957419E0,-5.0521364E0,-1.0276849E1,-2.746649E-1,4.8072424E0,2.5364673E0,1.1800556E1,-8.2714075E-1,-4.6914773E0,4.7243323E0,-4.898056E-1,3.6255214E0,1.4514247E1,7.2469683E0,2.5836627E0,2.0207605E1,1.4313372E1,1.1056427E1,6.395556E0,2.3177248E1,1.6101124E1,2.7600504E1,2.1866346E1,3.7869508E0,9.35033E0,2.0795458E1,1.2637195E1,2.8654846E1,1.821695E1],"split_indices":[3,3,3,3,3,3,3,3,1,2,2,3,0,3,3,3,2,3,3,3,3,3,3,2,2,3,3,1,1,0,0,0,1,3,0,2,0,1,2,2,0,0,2,0,0,2,2,0,2,2,1,2,2,3,1,0,0,0,0,0,0,0,0,0,0,0,0,0,0,0,0,0,0,0,0,0,0,0,0,0,0,0,0,0,0,0,0,0,0,0,0,0,0,0,0,0,0,0,0,0,0,0,0,0,0,0,0,0,0],"split_type":[0,0,0,0,0,0,0,0,0,0,0,0,0,0,0,0,0,0,0,0,0,0,0,0,0,0,0,0,0,0,0,0,0,0,0,0,0,0,0,0,0,0,0,0,0,0,0,0,0,0,0,0,0,0,0,0,0,0,0,0,0,0,0,0,0,0,0,0,0,0,0,0,0,0,0,0,0,0,0,0,0,0,0,0,0,0,0,0,0,0,0,0,0,0,0,0,0,0,0,0,0,0,0,0,0,0,0,0,0],"sum_hessian":[8.656E3,6.05E3,2.606E3,2.808E3,3.242E3,2.232E3,3.74E2,1.151E3,1.657E3,1.588E3,1.654E3,1.386E3,8.46E2,2.72E2,1.02E2,4.39E2,7.12E2,8.33E2,8.24E2,9.67E2,6.21E2,5.36E2,1.118E3,7.78E2,6.08E2,7.62E2,8.4E1,1.7E2,1.02E2,6.6E1,3.6E1,3.5E1,4.04E2,8.9E1,6.23E2,3.99E2,4.34E2,3.26E2,4.98E2,5.69E2,3.98E2,2.2E2,4.01E2,3.78E2,1.58E2,4.77E2,6.41E2,2.5E2,5.28E2,3.17E2,2.91E2,4.39E2,3.23E2,4.9E1,3.5E1,9E1,8E1,6.8E1,3.4E1,5.6E1,1E1,1.6E2,2.44E2,5.5E1,3.4E1,3.7E2,2.53E2,9.4E1,3.05E2,1.03E2,3.31E2,1.72E2,1.54E2,2.4E2,2.58E2,6E1,5.09E2,1.32E2,2.66E2,5.3E1,1.67E2,3.23E2,7.8E1,1.3E2,2.48E2,3.6E1,1.22E2,2.53E2,2.24E2,4.04E2,2.37E2,3.8E1,2.12E2,3.72E2,1.56E2,1.35E2,1.82E2,1.73E2,1.18E2,1.53E2,2.86E2,1.64E2,1.59E2,9E0,4E1,1.4E1,2.1E1,6.1E1,1.9E1],"tree_param":{"num_deleted":"0","num_feature":"4","num_nodes":"109","size_leaf_vector":"1"}},{"base_weights":[3.8661885E-1,-7.3799706E1,1.5477852E2,-1.4056314E2,-1.8927156E1,1.1553508E2,3.4744778E2,-1.8452109E2,-1.144272E2,-4.6526413E1,1.3182504E1,8.035427E1,1.6686852E2,2.8037497E2,4.650487E2,-2.129025E2,-1.7345946E2,-9.563064E1,-1.3621924E2,-3.0848106E1,-7.6456184E1,4.6395847E1,-1.5344548E0,6.0414436E1,1.056867E2,1.8053029E2,1.2050493E2,3.036581E2,2.2731767E2,4.0915683E2,5.380069E1,-2.5358692E1,-2.0579427E2,-1.2319699E2,-1.811867E2,-1.1524011E2,-6.860915E1,-1.6507976E2,-1.1755116E2,-5.349425E1,-8.227345E0,-1.1717081E2,-6.215733E1,2.6352736E1,8.63087E1,-4.1875484E1,9.728903E0,9.829692E1,3.434713E1,1.4689986E2,7.485733E1,1.5664748E2,2.0694307E2,9.432217E1,1.6394812E2,2.7235492E2,3.8635513E1,1.7910715E2,2.5533283E1,4.5807503E1,3.1216113E2,-1.6689257E1,-2.1869665E1,-1.4131432E1,-6.7590766E0,-1.6793684E1,-2.0064476E1,-8.687467E0,-1.3335932E1,-1.1248995E1,-5.4706454E0,-1.8013437E1,-1.5477345E1,-9.790511E0,-1.44794035E1,1.2043579E0,-6.523708E0,5.156275E0,-1.726983E0,-1.3814212E1,-9.291574E0,-1.2062877E1,-5.728761E0,-8.362383E-1,4.4619985E0,5.310971E0,1.2547401E1,-8.724221E0,-3.1594884E0,2.3956409E0,-1.9903612E0,7.1348863E0,1.360144E1,4.916057E0,8.543863E-2,1.0554988E1,1.6469122E1,9.220449E0,4.5020847E0,1.9119759E1,1.2614191E1,2.2724743E1,1.7460548E1,6.288499E0,1.0870289E1,1.9231825E1,1.0337902E1,2.9510782E1,2.2299833E1,2.179427E1,1.2169107E1,3.315379E1,2.0047827E1],"categories":[],"categories_nodes":[],"categories_segments":[],"categories_sizes":[],"default_left":[0,0,0,0,0,0,0,0,0,0,0,0,0,0,0,0,0,0,0,0,0,0,0,0,0,0,0,0,0,0,0,0,0,0,0,0,0,0,0,0,0,0,0,0,0,0,0,0,0,0,0,0,0,0,0,0,0,0,0,0,0,0,0,0,0,0,0,0,0,0,0,0,0,0,0,0,0,0,0,0,0,0,0,0,0,0,0,0,0,0,0,0,0,0,0,0,0,0,0,0,0,0,0,0,0,0,0,0,0,0,0,0,0],"id":15,"left_children":[1,3,5,7,9,11,13,15,17,19,21,23,25,27,29,31,33,35,37,39,41,43,45,47,49,51,53,55,57,59,-1,-1,61,63,65,67,69,71,73,75,77,79,81,83,85,87,89,91,93,95,97,99,101,103,105,107,-1,109,-1,-1,111,-1,-1,-1,-1,-1,-1,-1,-1,-1,-1,-1,-1,-1,-1,-1,-1,-1,-1,-1,-1,-1,-1,-1,-1,-1,-1,-1,-1,-1,-1,-1,-1,-1,-1,-1,-1,-1,-1,-1,-1,-1,-1,-1,-1,-1,-1,-1,-1,-1,-1,-1,-1],"loss_changes":[9.916669E7,2.142137E7,2.120628E7,3.00964E6,2.8462108E6,4.20529E6,3.616328E6,2.71362E5,6.65706E5,8.08033E5,7.259383E5,6.94728E5,5.7935E5,3.0775E5,4.77172E5,2.6185E4,2.54214E5,4.652735E5,3.92754E5,5.8098975E5,3.37945E5,3.625153E5,4.6841412E5,7.6588175E5,7.64054E5,4.28706E5,2.336405E5,4.35808E5,8.5279E4,3.3624E5,0E0,0E0,8.1955E4,8.9177125E4,1.24862E5,2.536175E5,2.2444912E5,1.83565E4,2.363045E5,4.3714838E5,3.0852088E5,6.498925E4,1.18659625E5,1.937888E5,1.9097412E5,1.0218297E5,3.402838E5,3.124985E5,2.2967212E5,1.73892E5,1.7751888E5,3.84823E5,1.86189E5,5.6004625E4,1.19305E5,1.08258E5,0E0,6.0439875E4,0E0,0E0,1.36035E4,0E0,0E0,0E0,0E0,0E0,0E0,0E0,0E0,0E0,0E0,0E0,0E0,0E0,0E0,0E0,0E0,0E0,0E0,0E0,0E0,0E0,0E0,0E0,0E0,0E0,0E0,0E0,0E0,0E0,0E0,0E0,0E0,0E0,0E0,0E0,0E0,0E0,0E0,0E0,0E0,0E0,0E0,0E0,0E0,0E0,0E0,0E0,0E0,0E0,0E0,0E0,0E0],"parents":[2147483647,0,0,1,1,2,2,3,3,4,4,5,5,6,6,7,7,8,8,9,9,10,10,11,11,12,12,13,13,14,14,15,15,16,16,17,17,18,18,19,19,20,20,21,21,22,22,23,23,24,24,25,25,26,26,27,27,28,28,29,29,32,32,33,33,34,34,35,35,36,36,37,37,38,38,39,39,40,40,41,41,42,42,43,43,44,44,45,45,46,46,47,47,48,48,49,49,50,50,51,51,52,52,53,53,54,54,55,55,57,57,60,60],"right_children":[2,4,6,8,10,12,14,16,18,20,22,24,26,28,30,32,34,36,38,40,42,44,46,48,50,52,54,56,58,60,-1,-1,62,64,66,68,70,72,74,76,78,80,82,84,86,88,90,92,94,96,98,100,102,104,106,108,-1,110,-1,-1,112,-1,-1,-1,-1,-1,-1,-1,-1,-1,-1,-1,-1,-1,-1,-1,-1,-1,-1,-1,-1,-1,-1,-1,-1,-1,-1,-1,-1,-1,-1,-1,-1,-1,-1,-1,-1,-1,-1,-1,-1,-1,-1,-1,-1,-1,-1,-1,-1,-1,-1,-1,-1],"split_conditions":[3.443617E3,2.8442036E3,4.3420146E3,2.467464E3,3.158354E3,3.8420222E3,4.9756113E3,2.2756038E3,2.7613933E3,3.0712104E3,3.2036108E3,3.6395696E3,4.159302E3,4.565651E3,5.475122E3,2.16535E3,2.2871587E3,2.6619724E3,2.6619724E3,2.9828633E3,2.9871963E3,3.2782366E3,3.2483865E3,3.483578E3,3.7048071E3,4.031475E3,4.1602646E3,4.6450913E3,4.5651694E3,5.1448433E3,5.380069E1,-2.5358692E1,2.2118108E3,2.3759873E3,2.7173398E3,2.4953887E3,2.3543218E3,2.5553298E3,2.8947566E3,2.7257654E3,2.8442036E3,3.4518018E3,2.8880164E3,2.819168E3,2.8947566E3,3.1075603E3,3.4431355E3,3.1759272E3,3.6857896E3,3.2192583E3,3.8752427E3,3.852855E3,4.105138E3,3.943128E3,4.51245E3,4.410622E3,3.8635513E1,4.8718574E3,2.5533283E1,4.5807503E1,5.679982E3,-1.6689257E1,-2.1869665E1,-1.4131432E1,-6.7590766E0,-1.6793684E1,-2.0064476E1,-8.687467E0,-1.3335932E1,-1.1248995E1,-5.4706454E0,-1.8013437E1,-1.5477345E1,-9.790511E0,-1.44794035E1,1.2043579E0,-6.523708E0,5.156275E0,-1.726983E0,-1.3814212E1,-9.291574E0,-1.2062877E1,-5.728761E0,-8.362383E-1,4.4619985E0,5.310971E0,1.2547401E1,-8.724221E0,-3.1594884E0,2.3956409E0,-1.9903612E0,7.1348863E0,1.360144E1,4.916057E0,8.543863E-2,1.0554988E1,1.6469122E1,9.220449E0,4.5020847E0,1.9119759E1,1.2614191E1,2.2724743E1,1.7460548E1,6.288499E0,1.0870289E1,1.9231825E1,1.0337902E1,2.9510782E1,2.2299833E1,2.179427E1,1.2169107E1,3.315379E1,2.0047827E1],"split_indices":[3,3,3,3,3,3,3,3,1,2,2,3,0,1,3,3,2,3,3,3,3,3,3,2,2,3,3,3,3,0,0,0,2,3,0,2,0,3,2,2,2,0,0,0,0,0,2,0,2,0,2,2,2,3,1,2,0,0,0,0,0,0,0,0,0,0,0,0,0,0,0,0,0,0,0,0,0,0,0,0,0,0,0,0,0,0,0,0,0,0,0,0,0,0,0,0,0,0,0,0,0,0,0,0,0,0,0,0,0,0,0,0,0],"split_type":[0,0,0,0,0,0,0,0,0,0,0,0,0,0,0,0,0,0,0,0,0,0,0,0,0,0,0,0,0,0,0,0,0,0,0,0,0,0,0,0,0,0,0,0,0,0,0,0,0,0,0,0,0,0,0,0,0,0,0,0,0,0,0,0,0,0,0,0,0,0,0,0,0,0,0,0,0,0,0,0,0,0,0,0,0,0,0,0,0,0,0,0,0,0,0,0,0,0,0,0,0,0,0,0,0,0,0,0,0,0,0,0,0],"sum_hessian":[8.656E3,5.847E3,2.809E3,2.637E3,3.21E3,2.335E3,4.74E2,9.81E2,1.656E3,1.726E3,1.484E3,1.387E3,9.48E2,3.04E2,1.7E2,2.7E2,7.11E2,8.92E2,7.64E2,1.134E3,5.92E2,4.55E2,1.029E3,7.78E2,6.09E2,7.3E2,2.18E2,2.08E2,9.6E1,1E2,7E1,3.5E1,2.35E2,9.7E1,6.14E2,5.15E2,3.77E2,2.97E2,4.67E2,5.66E2,5.68E2,1.52E2,4.4E2,3.04E2,1.51E2,2.24E2,8.05E2,3.16E2,4.62E2,2.59E2,3.5E2,3.87E2,3.43E2,1.38E2,8E1,1.54E2,5.4E1,3.8E1,5.8E1,6.4E1,3.6E1,6.2E1,1.73E2,7.2E1,2.5E1,3.71E2,2.43E2,2.03E2,3.12E2,8.9E1,2.88E2,1.14E2,1.83E2,2.74E2,1.93E2,8.6E1,4.8E2,7.4E1,4.94E2,7.9E1,7.3E1,3.2E1,4.08E2,1.05E2,1.99E2,8.3E1,6.8E1,4E1,1.84E2,5.44E2,2.61E2,1.86E2,1.3E2,3.2E2,1.42E2,8E1,1.79E2,2.2E2,1.3E2,1.79E2,2.08E2,2.07E2,1.36E2,4.5E1,9.3E1,5.3E1,2.7E1,1.02E2,5.2E1,2.1E1,1.7E1,2.9E1,7E0],"tree_param":{"num_deleted":"0","num_feature":"4","num_nodes":"113","size_leaf_vector":"1"}},{"base_weights":[3.7531748E-1,-6.01388E1,1.5458696E2,-1.1934923E2,-4.724336E0,1.2278247E2,3.5066537E2,-1.5771016E2,-9.061507E1,-2.9579533E1,2.4145638E1,9.379804E1,1.753027E2,3.0090488E2,4.6224142E2,-1.806993E2,-1.4077348E2,-7.7050125E1,-1.1860051E2,2.3242054E0,-4.221911E1,4.294278E1,2.0751963E0,7.567696E1,1.1590111E2,1.9099704E2,1.4121057E2,2.6680957E2,3.4300253E2,4.1880713E2,5.2839977E1,-1.7190431E2,-2.0594118E1,-9.4948006E1,-1.5112791E2,-9.512043E1,-5.5397606E1,-1.4772629E2,-1.0336467E2,-5.9605675E1,1.8716116E1,-6.467562E1,-2.1033958E1,-2.1971095E0,5.3230305E1,-2.8640524E1,1.766477E1,1.4819707E2,6.1167896E1,1.5299814E2,8.856446E1,1.7319006E2,2.3234177E2,9.6761375E1,1.6601529E2,3.1047575E1,2.1720595E2,3.6388805E1,2.2416054E2,4.4223213E1,2.5934958E1,-2.0161283E1,-1.5806975E1,-1.1468813E1,-5.5947204E0,-1.4121577E1,-1.7258234E1,-5.133804E0,-1.0805084E1,-1.5549806E0,-6.6498322E0,-1.6182756E1,-1.371226E1,-8.272109E0,-1.1669439E1,1.4011537E-1,-8.589197E0,9.6377033E-1,9.768434E0,-1.172563E1,-5.839819E0,-1.0868817E-1,-4.9656153E0,4.754271E0,-5.125355E0,3.3843167E0,8.566835E0,-5.5443935E0,-7.389842E-1,3.1541758E0,-2.4121149E0,1.2922069E1,1.8932474E1,7.545903E0,2.5138252E0,1.9088943E1,1.3316297E1,1.0388952E1,6.1800704E0,1.955705E1,1.395831E1,2.435234E1,1.5621569E1,1.1149564E1,4.749061E0,1.7758656E1,1.0586739E1,2.364685E1,1.4664145E1,8.250537E0,2.3671085E1],"categories":[],"categories_nodes":[],"categories_segments":[],"categories_sizes":[],"default_left":[0,0,0,0,0,0,0,0,0,0,0,0,0,0,0,0,0,0,0,0,0,0,0,0,0,0,0,0,0,0,0,0,0,0,0,0,0,0,0,0,0,0,0,0,0,0,0,0,0,0,0,0,0,0,0,0,0,0,0,0,0,0,0,0,0,0,0,0,0,0,0,0,0,0,0,0,0,0,0,0,0,0,0,0,0,0,0,0,0,0,0,0,0,0,0,0,0,0,0,0,0,0,0,0,0,0,0,0,0,0,0],"id":16,"left_children":[1,3,5,7,9,11,13,15,17,19,21,23,25,27,29,31,33,35,37,39,41,43,45,47,49,51,53,55,57,59,-1,61,-1,63,65,67,69,71,73,75,77,79,81,83,85,87,89,91,93,95,97,99,101,103,105,-1,107,-1,109,-1,-1,-1,-1,-1,-1,-1,-1,-1,-1,-1,-1,-1,-1,-1,-1,-1,-1,-1,-1,-1,-1,-1,-1,-1,-1,-1,-1,-1,-1,-1,-1,-1,-1,-1,-1,-1,-1,-1,-1,-1,-1,-1,-1,-1,-1,-1,-1,-1,-1,-1,-1],"loss_changes":[8.079627E7,2.0401402E7,1.5173212E7,3.299132E6,2.306263E6,3.181844E6,1.748616E6,4.7528E5,6.4419E5,6.965105E5,6.168096E5,5.34349E5,3.7218E5,2.50094E5,7.4676E4,8.4924E4,3.39151E5,4.49383E5,2.33234E5,4.9955384E5,5.871355E5,3.7301225E5,3.2851478E5,7.779805E5,6.040425E5,3.33762E5,2.474455E5,2.27138E5,1.74084E5,1.35573E5,0E0,1.35821E5,0E0,1.01366875E5,1.04501E5,3.522435E5,2.33848E5,6.2195E3,9.2436E4,1.6529556E5,2.7793506E5,1.911955E5,3.641988E5,3.6844547E5,4.0838862E5,1.3116575E5,2.645983E5,7.23115E4,3.1991825E5,1.67737E5,1.383645E5,2.4272E5,8.964E4,5.8590188E4,8.698925E4,0E0,5.63935E4,0E0,1.24708125E4,0E0,0E0,0E0,0E0,0E0,0E0,0E0,0E0,0E0,0E0,0E0,0E0,0E0,0E0,0E0,0E0,0E0,0E0,0E0,0E0,0E0,0E0,0E0,0E0,0E0,0E0,0E0,0E0,0E0,0E0,0E0,0E0,0E0,0E0,0E0,0E0,0E0,0E0,0E0,0E0,0E0,